SNNS network definition file V1.4-3D
generated at Sun Aug 21 00:58:18 2005

network name : 20x20_3hidden_v7
source files :
no. of units : 1254
no. of connections : 30596
no. of unit types : 0
no. of site types : 0


learning function : Std_Backpropagation
update function   : Topological_Order


unit default section :

act      | bias     | st | subnet | layer | act func     | out func
---------|----------|----|--------|-------|--------------|-------------
 0.00000 |  0.00000 | h  |      0 |     1 | Act_Logistic | Out_Identity 
---------|----------|----|--------|-------|--------------|-------------


unit definition section :

 no. | typeName | unitName | act      | bias     | st | position | act func | out func | sites
-----|----------|----------|----------|----------|----|----------|----------|----------|-------
   1 |          |          |  0.75000 | -0.72601 | i  |  2, 2, 1 |||
   2 |          |          |  0.16863 | -0.50799 | i  |  5, 2, 1 |||
   3 |          |          |  0.21177 | -0.74034 | i  |  6, 2, 1 |||
   4 |          |          |  0.23922 |  0.54326 | i  |  7, 2, 1 |||
   5 |          |          |  0.25882 |  0.39389 | i  |  8, 2, 1 |||
   6 |          |          |  0.28235 | -0.34179 | i  |  9, 2, 1 |||
   7 |          |          |  0.29804 |  0.71611 | i  | 10, 2, 1 |||
   8 |          |          |  0.21569 |  0.03529 | i  | 11, 2, 1 |||
   9 |          |          |  0.40392 | -0.39495 | i  | 12, 2, 1 |||
  10 |          |          |  0.79608 |  0.86476 | i  | 13, 2, 1 |||
  11 |          |          |  0.73725 | -0.43759 | i  | 14, 2, 1 |||
  12 |          |          |  0.67451 |  0.46860 | i  | 15, 2, 1 |||
  13 |          |          |  0.61569 |  0.46050 | i  | 16, 2, 1 |||
  14 |          |          |  0.58431 |  0.06301 | i  | 17, 2, 1 |||
  15 |          |          |  0.61177 | -0.06199 | i  | 18, 2, 1 |||
  16 |          |          |  0.75294 |  0.65545 | i  | 19, 2, 1 |||
  17 |          |          |  0.70196 |  0.85667 | i  | 20, 2, 1 |||
  18 |          |          |  0.60784 | -0.77603 | i  | 21, 2, 1 |||
  19 |          |          |  0.71765 | -0.14285 | i  | 22, 2, 1 |||
  20 |          |          |  0.81961 |  0.17331 | i  | 23, 2, 1 |||
  21 |          |          |  0.77647 |  0.13889 | i  | 24, 2, 1 |||
  22 |          |          |  0.22353 |  0.66636 | i  |  5, 3, 1 |||
  23 |          |          |  0.23529 | -0.37471 | i  |  6, 3, 1 |||
  24 |          |          |  0.25490 | -0.82602 | i  |  7, 3, 1 |||
  25 |          |          |  0.27843 | -0.11652 | i  |  8, 3, 1 |||
  26 |          |          |  0.31372 |  0.65425 | i  |  9, 3, 1 |||
  27 |          |          |  0.30588 |  0.14019 | i  | 10, 3, 1 |||
  28 |          |          |  0.19608 | -0.67873 | i  | 11, 3, 1 |||
  29 |          |          |  0.30196 | -0.60038 | i  | 12, 3, 1 |||
  30 |          |          |  0.45098 | -0.74154 | i  | 13, 3, 1 |||
  31 |          |          |  0.49020 | -0.04082 | i  | 14, 3, 1 |||
  32 |          |          |  0.65098 |  0.55947 | i  | 15, 3, 1 |||
  33 |          |          |  0.63137 |  0.18351 | i  | 16, 3, 1 |||
  34 |          |          |  0.58824 | -0.72492 | i  | 17, 3, 1 |||
  35 |          |          |  0.65882 | -0.35765 | i  | 18, 3, 1 |||
  36 |          |          |  0.80000 | -0.28842 | i  | 19, 3, 1 |||
  37 |          |          |  0.85490 |  0.86408 | i  | 20, 3, 1 |||
  38 |          |          |  0.85882 |  0.17047 | i  | 21, 3, 1 |||
  39 |          |          |  0.74118 |  0.79046 | i  | 22, 3, 1 |||
  40 |          |          |  0.81569 | -0.14513 | i  | 23, 3, 1 |||
  41 |          |          |  0.83922 |  0.39127 | i  | 24, 3, 1 |||
  42 |          |          |  0.22353 | -0.63172 | i  |  5, 4, 1 |||
  43 |          |          |  0.25098 | -0.96796 | i  |  6, 4, 1 |||
  44 |          |          |  0.27059 |  0.48900 | i  |  7, 4, 1 |||
  45 |          |          |  0.28235 |  0.21490 | i  |  8, 4, 1 |||
  46 |          |          |  0.34118 |  0.72488 | i  |  9, 4, 1 |||
  47 |          |          |  0.18431 | -0.53201 | i  | 10, 4, 1 |||
  48 |          |          |  0.10980 |  0.13453 | i  | 11, 4, 1 |||
  49 |          |          |  0.23137 |  0.45936 | i  | 12, 4, 1 |||
  50 |          |          |  0.28235 | -0.51271 | i  | 13, 4, 1 |||
  51 |          |          |  0.26667 |  0.58630 | i  | 14, 4, 1 |||
  52 |          |          |  0.42353 | -0.91965 | i  | 15, 4, 1 |||
  53 |          |          |  0.61569 | -0.81487 | i  | 16, 4, 1 |||
  54 |          |          |  0.58431 | -0.65665 | i  | 17, 4, 1 |||
  55 |          |          |  0.67843 | -0.90646 | i  | 18, 4, 1 |||
  56 |          |          |  0.79216 | -0.58777 | i  | 19, 4, 1 |||
  57 |          |          |  0.76863 | -0.09564 | i  | 20, 4, 1 |||
  58 |          |          |  0.75686 | -0.97221 | i  | 21, 4, 1 |||
  59 |          |          |  0.68235 | -0.50590 | i  | 22, 4, 1 |||
  60 |          |          |  0.76863 | -0.45915 | i  | 23, 4, 1 |||
  61 |          |          |  0.81177 | -0.15930 | i  | 24, 4, 1 |||
  62 |          |          |  0.24314 | -0.77220 | i  |  5, 5, 1 |||
  63 |          |          |  0.25490 | -0.55179 | i  |  6, 5, 1 |||
  64 |          |          |  0.27843 |  0.51924 | i  |  7, 5, 1 |||
  65 |          |          |  0.30196 | -0.15788 | i  |  8, 5, 1 |||
  66 |          |          |  0.40392 | -0.15347 | i  |  9, 5, 1 |||
  67 |          |          |  0.32941 |  0.16493 | i  | 10, 5, 1 |||
  68 |          |          |  0.23137 |  0.27381 | i  | 11, 5, 1 |||
  69 |          |          |  0.29804 |  0.31411 | i  | 12, 5, 1 |||
  70 |          |          |  0.27059 | -0.14289 | i  | 13, 5, 1 |||
  71 |          |          |  0.30588 | -0.61155 | i  | 14, 5, 1 |||
  72 |          |          |  0.31765 | -0.78059 | i  | 15, 5, 1 |||
  73 |          |          |  0.60784 | -0.42496 | i  | 16, 5, 1 |||
  74 |          |          |  0.58431 | -0.43994 | i  | 17, 5, 1 |||
  75 |          |          |  0.63922 | -0.68730 | i  | 18, 5, 1 |||
  76 |          |          |  0.78039 |  0.80364 | i  | 19, 5, 1 |||
  77 |          |          |  0.80392 |  0.27811 | i  | 20, 5, 1 |||
  78 |          |          |  0.76863 | -0.19506 | i  | 21, 5, 1 |||
  79 |          |          |  0.71372 |  0.25004 | i  | 22, 5, 1 |||
  80 |          |          |  0.75294 | -0.48622 | i  | 23, 5, 1 |||
  81 |          |          |  0.78039 | -0.78186 | i  | 24, 5, 1 |||
  82 |          |          |  0.25098 | -0.86242 | i  |  5, 6, 1 |||
  83 |          |          |  0.26667 |  0.66832 | i  |  6, 6, 1 |||
  84 |          |          |  0.27843 |  0.43677 | i  |  7, 6, 1 |||
  85 |          |          |  0.34902 | -0.73364 | i  |  8, 6, 1 |||
  86 |          |          |  0.32941 |  0.58588 | i  |  9, 6, 1 |||
  87 |          |          |  0.32549 |  0.72593 | i  | 10, 6, 1 |||
  88 |          |          |  0.31372 | -0.78941 | i  | 11, 6, 1 |||
  89 |          |          |  0.34510 |  0.26317 | i  | 12, 6, 1 |||
  90 |          |          |  0.31372 | -0.67785 | i  | 13, 6, 1 |||
  91 |          |          |  0.33726 |  0.44638 | i  | 14, 6, 1 |||
  92 |          |          |  0.33333 |  0.23650 | i  | 15, 6, 1 |||
  93 |          |          |  0.48235 |  0.45431 | i  | 16, 6, 1 |||
  94 |          |          |  0.59216 |  0.37549 | i  | 17, 6, 1 |||
  95 |          |          |  0.58039 |  0.79916 | i  | 18, 6, 1 |||
  96 |          |          |  0.65882 | -0.60353 | i  | 19, 6, 1 |||
  97 |          |          |  0.70196 |  0.07944 | i  | 20, 6, 1 |||
  98 |          |          |  0.81569 |  0.27157 | i  | 21, 6, 1 |||
  99 |          |          |  0.85490 |  0.15001 | i  | 22, 6, 1 |||
 100 |          |          |  0.80784 | -0.23254 | i  | 23, 6, 1 |||
 101 |          |          |  0.79216 |  0.70631 | i  | 24, 6, 1 |||
 102 |          |          |  0.25098 |  0.52600 | i  |  5, 7, 1 |||
 103 |          |          |  0.27451 | -0.38499 | i  |  6, 7, 1 |||
 104 |          |          |  0.29020 |  0.44344 | i  |  7, 7, 1 |||
 105 |          |          |  0.40392 |  0.13720 | i  |  8, 7, 1 |||
 106 |          |          |  0.26667 |  0.60561 | i  |  9, 7, 1 |||
 107 |          |          |  0.29020 | -0.05545 | i  | 10, 7, 1 |||
 108 |          |          |  0.33726 | -0.46817 | i  | 11, 7, 1 |||
 109 |          |          |  0.32549 |  0.57644 | i  | 12, 7, 1 |||
 110 |          |          |  0.32941 |  0.81320 | i  | 13, 7, 1 |||
 111 |          |          |  0.31372 | -0.33366 | i  | 14, 7, 1 |||
 112 |          |          |  0.30588 |  0.62116 | i  | 15, 7, 1 |||
 113 |          |          |  0.33726 | -0.78607 | i  | 16, 7, 1 |||
 114 |          |          |  0.70588 | -0.22158 | i  | 17, 7, 1 |||
 115 |          |          |  0.69020 | -0.33529 | i  | 18, 7, 1 |||
 116 |          |          |  0.69020 |  0.92405 | i  | 19, 7, 1 |||
 117 |          |          |  0.68235 | -0.48163 | i  | 20, 7, 1 |||
 118 |          |          |  0.81961 | -0.69879 | i  | 21, 7, 1 |||
 119 |          |          |  0.84314 | -0.65572 | i  | 22, 7, 1 |||
 120 |          |          |  0.79216 | -0.74261 | i  | 23, 7, 1 |||
 121 |          |          |  0.80392 |  0.00621 | i  | 24, 7, 1 |||
 122 |          |          |  0.25882 | -0.63527 | i  |  5, 8, 1 |||
 123 |          |          |  0.27451 | -0.45863 | i  |  6, 8, 1 |||
 124 |          |          |  0.31372 | -0.12765 | i  |  7, 8, 1 |||
 125 |          |          |  0.41961 | -0.18411 | i  |  8, 8, 1 |||
 126 |          |          |  0.31765 | -0.39964 | i  |  9, 8, 1 |||
 127 |          |          |  0.30980 | -0.22869 | i  | 10, 8, 1 |||
 128 |          |          |  0.33333 |  0.70005 | i  | 11, 8, 1 |||
 129 |          |          |  0.37255 |  0.41929 | i  | 12, 8, 1 |||
 130 |          |          |  0.30588 |  0.45645 | i  | 13, 8, 1 |||
 131 |          |          |  0.33726 |  0.94297 | i  | 14, 8, 1 |||
 132 |          |          |  0.32549 |  0.11474 | i  | 15, 8, 1 |||
 133 |          |          |  0.34510 | -0.31133 | i  | 16, 8, 1 |||
 134 |          |          |  0.60000 |  0.11979 | i  | 17, 8, 1 |||
 135 |          |          |  0.69020 | -0.11337 | i  | 18, 8, 1 |||
 136 |          |          |  0.83137 |  0.08213 | i  | 19, 8, 1 |||
 137 |          |          |  0.81569 | -0.65648 | i  | 20, 8, 1 |||
 138 |          |          |  0.80392 | -0.08956 | i  | 21, 8, 1 |||
 139 |          |          |  0.82353 |  0.82329 | i  | 22, 8, 1 |||
 140 |          |          |  0.73333 | -0.72592 | i  | 23, 8, 1 |||
 141 |          |          |  0.76863 | -0.34095 | i  | 24, 8, 1 |||
 142 |          |          |  0.26274 |  0.67989 | i  |  5, 9, 1 |||
 143 |          |          |  0.28235 | -0.00584 | i  |  6, 9, 1 |||
 144 |          |          |  0.35294 | -0.92342 | i  |  7, 9, 1 |||
 145 |          |          |  0.39608 |  0.95169 | i  |  8, 9, 1 |||
 146 |          |          |  0.27451 | -0.32876 | i  |  9, 9, 1 |||
 147 |          |          |  0.22353 |  0.15108 | i  | 10, 9, 1 |||
 148 |          |          |  0.14902 | -0.44908 | i  | 11, 9, 1 |||
 149 |          |          |  0.10588 |  0.58372 | i  | 12, 9, 1 |||
 150 |          |          |  0.19608 | -0.44910 | i  | 13, 9, 1 |||
 151 |          |          |  0.26274 |  0.41072 | i  | 14, 9, 1 |||
 152 |          |          |  0.26274 | -0.54894 | i  | 15, 9, 1 |||
 153 |          |          |  0.27059 | -0.53687 | i  | 16, 9, 1 |||
 154 |          |          |  0.43137 |  0.81219 | i  | 17, 9, 1 |||
 155 |          |          |  0.61569 |  0.36852 | i  | 18, 9, 1 |||
 156 |          |          |  0.81569 |  0.94470 | i  | 19, 9, 1 |||
 157 |          |          |  0.91373 |  0.76028 | i  | 20, 9, 1 |||
 158 |          |          |  0.87451 |  0.62277 | i  | 21, 9, 1 |||
 159 |          |          |  0.82353 |  0.46783 | i  | 22, 9, 1 |||
 160 |          |          |  0.74118 |  0.29312 | i  | 23, 9, 1 |||
 161 |          |          |  0.80784 | -0.07982 | i  | 24, 9, 1 |||
 162 |          |          |  0.26667 | -0.70410 | i  |  5,10, 1 |||
 163 |          |          |  0.29020 |  0.88481 | i  |  6,10, 1 |||
 164 |          |          |  0.41177 |  0.44325 | i  |  7,10, 1 |||
 165 |          |          |  0.32941 | -0.78825 | i  |  8,10, 1 |||
 166 |          |          |  0.26667 | -0.01262 | i  |  9,10, 1 |||
 167 |          |          |  0.26274 | -0.07724 | i  | 10,10, 1 |||
 168 |          |          |  0.11372 | -0.72556 | i  | 11,10, 1 |||
 169 |          |          |  0.03922 | -0.19019 | i  | 12,10, 1 |||
 170 |          |          |  0.09804 | -0.25019 | i  | 13,10, 1 |||
 171 |          |          |  0.33726 |  0.75708 | i  | 14,10, 1 |||
 172 |          |          |  0.29412 | -0.41283 | i  | 15,10, 1 |||
 173 |          |          |  0.32157 |  0.63320 | i  | 16,10, 1 |||
 174 |          |          |  0.40784 | -0.27202 | i  | 17,10, 1 |||
 175 |          |          |  0.69804 | -0.17500 | i  | 18,10, 1 |||
 176 |          |          |  0.83529 | -0.74180 | i  | 19,10, 1 |||
 177 |          |          |  0.85882 | -0.66238 | i  | 20,10, 1 |||
 178 |          |          |  0.81569 |  0.78516 | i  | 21,10, 1 |||
 179 |          |          |  0.81177 | -0.95462 | i  | 22,10, 1 |||
 180 |          |          |  0.75686 | -0.77979 | i  | 23,10, 1 |||
 181 |          |          |  0.70980 |  0.55289 | i  | 24,10, 1 |||
 182 |          |          |  0.27059 |  0.16207 | i  |  5,11, 1 |||
 183 |          |          |  0.30588 | -0.93804 | i  |  6,11, 1 |||
 184 |          |          |  0.43137 |  0.92684 | i  |  7,11, 1 |||
 185 |          |          |  0.29804 |  0.82370 | i  |  8,11, 1 |||
 186 |          |          |  0.28627 |  0.55765 | i  |  9,11, 1 |||
 187 |          |          |  0.23529 |  0.84970 | i  | 10,11, 1 |||
 188 |          |          |  0.34118 |  0.07821 | i  | 11,11, 1 |||
 189 |          |          |  0.15686 | -0.98382 | i  | 12,11, 1 |||
 190 |          |          |  0.20392 |  0.17205 | i  | 13,11, 1 |||
 191 |          |          |  0.41569 |  0.17293 | i  | 14,11, 1 |||
 192 |          |          |  0.34510 | -0.08214 | i  | 15,11, 1 |||
 193 |          |          |  0.36471 |  0.03929 | i  | 16,11, 1 |||
 194 |          |          |  0.33726 |  0.37516 | i  | 17,11, 1 |||
 195 |          |          |  0.42353 | -0.25408 | i  | 18,11, 1 |||
 196 |          |          |  0.47843 | -0.85108 | i  | 19,11, 1 |||
 197 |          |          |  0.68628 | -0.45605 | i  | 20,11, 1 |||
 198 |          |          |  0.65882 |  0.58498 | i  | 21,11, 1 |||
 199 |          |          |  0.67451 | -0.42690 | i  | 22,11, 1 |||
 200 |          |          |  0.64314 | -0.79645 | i  | 23,11, 1 |||
 201 |          |          |  0.51372 |  0.34052 | i  | 24,11, 1 |||
 202 |          |          |  0.28235 | -0.79674 | i  |  5,12, 1 |||
 203 |          |          |  0.33333 |  0.23419 | i  |  6,12, 1 |||
 204 |          |          |  0.41569 |  0.45134 | i  |  7,12, 1 |||
 205 |          |          |  0.28235 | -0.75209 | i  |  8,12, 1 |||
 206 |          |          |  0.24314 | -0.17445 | i  |  9,12, 1 |||
 207 |          |          |  0.30980 | -0.93036 | i  | 10,12, 1 |||
 208 |          |          |  0.32941 |  0.13587 | i  | 11,12, 1 |||
 209 |          |          |  0.32941 |  0.17985 | i  | 12,12, 1 |||
 210 |          |          |  0.39216 |  0.90138 | i  | 13,12, 1 |||
 211 |          |          |  0.38824 | -0.10278 | i  | 14,12, 1 |||
 212 |          |          |  0.32549 | -0.96214 | i  | 15,12, 1 |||
 213 |          |          |  0.29412 | -0.19619 | i  | 16,12, 1 |||
 214 |          |          |  0.27059 |  0.26836 | i  | 17,12, 1 |||
 215 |          |          |  0.35294 | -0.52035 | i  | 18,12, 1 |||
 216 |          |          |  0.50980 |  0.70084 | i  | 19,12, 1 |||
 217 |          |          |  0.56078 | -0.01184 | i  | 20,12, 1 |||
 218 |          |          |  0.62745 |  0.94252 | i  | 21,12, 1 |||
 219 |          |          |  0.58431 |  0.23743 | i  | 22,12, 1 |||
 220 |          |          |  0.48627 |  0.61417 | i  | 23,12, 1 |||
 221 |          |          |  0.47059 | -0.51090 | i  | 24,12, 1 |||
 222 |          |          |  0.28235 | -0.14639 | i  |  5,13, 1 |||
 223 |          |          |  0.40000 | -0.72515 | i  |  6,13, 1 |||
 224 |          |          |  0.38039 | -0.91246 | i  |  7,13, 1 |||
 225 |          |          |  0.27059 | -0.48014 | i  |  8,13, 1 |||
 226 |          |          |  0.25490 |  0.22677 | i  |  9,13, 1 |||
 227 |          |          |  0.29412 | -0.37922 | i  | 10,13, 1 |||
 228 |          |          |  0.36471 |  0.20114 | i  | 11,13, 1 |||
 229 |          |          |  0.31372 | -0.31466 | i  | 12,13, 1 |||
 230 |          |          |  0.38039 |  0.60695 | i  | 13,13, 1 |||
 231 |          |          |  0.39216 | -0.51909 | i  | 14,13, 1 |||
 232 |          |          |  0.38431 |  0.67443 | i  | 15,13, 1 |||
 233 |          |          |  0.32549 | -0.45927 | i  | 16,13, 1 |||
 234 |          |          |  0.27059 |  0.39383 | i  | 17,13, 1 |||
 235 |          |          |  0.50980 | -0.59822 | i  | 18,13, 1 |||
 236 |          |          |  0.53725 | -0.27031 | i  | 19,13, 1 |||
 237 |          |          |  0.51765 | -0.87390 | i  | 20,13, 1 |||
 238 |          |          |  0.50980 | -0.28232 | i  | 21,13, 1 |||
 239 |          |          |  0.53333 |  0.54916 | i  | 22,13, 1 |||
 240 |          |          |  0.47451 |  0.97171 | i  | 23,13, 1 |||
 241 |          |          |  0.44706 |  0.21255 | i  | 24,13, 1 |||
 242 |          |          |  0.30980 | -0.22772 | i  |  5,14, 1 |||
 243 |          |          |  0.40392 | -0.86199 | i  |  6,14, 1 |||
 244 |          |          |  0.30588 |  0.36414 | i  |  7,14, 1 |||
 245 |          |          |  0.23137 | -0.26018 | i  |  8,14, 1 |||
 246 |          |          |  0.29804 | -0.21942 | i  |  9,14, 1 |||
 247 |          |          |  0.33726 | -0.40342 | i  | 10,14, 1 |||
 248 |          |          |  0.36078 | -0.06881 | i  | 11,14, 1 |||
 249 |          |          |  0.33726 |  0.69091 | i  | 12,14, 1 |||
 250 |          |          |  0.23137 | -0.22694 | i  | 13,14, 1 |||
 251 |          |          |  0.27843 |  0.82404 | i  | 14,14, 1 |||
 252 |          |          |  0.34510 |  0.69105 | i  | 15,14, 1 |||
 253 |          |          |  0.32157 | -0.80738 | i  | 16,14, 1 |||
 254 |          |          |  0.22353 |  0.69574 | i  | 17,14, 1 |||
 255 |          |          |  0.49804 | -0.72514 | i  | 18,14, 1 |||
 256 |          |          |  0.53725 |  0.34573 | i  | 19,14, 1 |||
 257 |          |          |  0.51765 |  0.30200 | i  | 20,14, 1 |||
 258 |          |          |  0.51372 |  0.14205 | i  | 21,14, 1 |||
 259 |          |          |  0.61177 | -0.71637 | i  | 22,14, 1 |||
 260 |          |          |  0.60392 |  0.69004 | i  | 23,14, 1 |||
 261 |          |          |  0.53725 | -0.82022 | i  | 24,14, 1 |||
 262 |          |          |  0.32549 |  0.54627 | i  |  5,15, 1 |||
 263 |          |          |  0.40784 |  0.58220 | i  |  6,15, 1 |||
 264 |          |          |  0.23137 |  0.80856 | i  |  7,15, 1 |||
 265 |          |          |  0.23922 | -0.79843 | i  |  8,15, 1 |||
 266 |          |          |  0.16078 |  0.03192 | i  |  9,15, 1 |||
 267 |          |          |  0.38039 |  0.25552 | i  | 10,15, 1 |||
 268 |          |          |  0.37255 | -0.38017 | i  | 11,15, 1 |||
 269 |          |          |  0.18823 | -0.85487 | i  | 12,15, 1 |||
 270 |          |          |  0.21177 |  0.53814 | i  | 13,15, 1 |||
 271 |          |          |  0.36863 | -0.82814 | i  | 14,15, 1 |||
 272 |          |          |  0.36471 | -0.11202 | i  | 15,15, 1 |||
 273 |          |          |  0.30588 | -0.35654 | i  | 16,15, 1 |||
 274 |          |          |  0.24314 |  0.33528 | i  | 17,15, 1 |||
 275 |          |          |  0.30588 | -0.70791 | i  | 18,15, 1 |||
 276 |          |          |  0.52941 | -0.39295 | i  | 19,15, 1 |||
 277 |          |          |  0.52157 |  0.42612 | i  | 20,15, 1 |||
 278 |          |          |  0.51765 | -0.21295 | i  | 21,15, 1 |||
 279 |          |          |  0.54118 |  0.13890 | i  | 22,15, 1 |||
 280 |          |          |  0.66274 |  0.79638 | i  | 23,15, 1 |||
 281 |          |          |  0.71372 | -0.10236 | i  | 24,15, 1 |||
 282 |          |          |  0.34510 | -0.85843 | i  |  5,16, 1 |||
 283 |          |          |  0.36471 | -0.63823 | i  |  6,16, 1 |||
 284 |          |          |  0.29020 | -0.18285 | i  |  7,16, 1 |||
 285 |          |          |  0.40784 | -0.17176 | i  |  8,16, 1 |||
 286 |          |          |  0.39608 | -0.62383 | i  |  9,16, 1 |||
 287 |          |          |  0.32549 | -0.11786 | i  | 10,16, 1 |||
 288 |          |          |  0.22745 |  0.89272 | i  | 11,16, 1 |||
 289 |          |          |  0.18039 | -0.54305 | i  | 12,16, 1 |||
 290 |          |          |  0.22353 |  0.53724 | i  | 13,16, 1 |||
 291 |          |          |  0.32549 | -0.99494 | i  | 14,16, 1 |||
 292 |          |          |  0.33726 |  0.61599 | i  | 15,16, 1 |||
 293 |          |          |  0.23922 |  0.32561 | i  | 16,16, 1 |||
 294 |          |          |  0.30196 | -0.31530 | i  | 17,16, 1 |||
 295 |          |          |  0.47059 | -0.55911 | i  | 18,16, 1 |||
 296 |          |          |  0.53725 | -0.14406 | i  | 19,16, 1 |||
 297 |          |          |  0.52549 |  0.45910 | i  | 20,16, 1 |||
 298 |          |          |  0.50588 | -0.73612 | i  | 21,16, 1 |||
 299 |          |          |  0.50196 |  0.04014 | i  | 22,16, 1 |||
 300 |          |          |  0.66667 | -0.90238 | i  | 23,16, 1 |||
 301 |          |          |  0.77647 | -0.03423 | i  | 24,16, 1 |||
 302 |          |          |  0.36471 |  0.50075 | i  |  5,17, 1 |||
 303 |          |          |  0.20784 | -0.30384 | i  |  6,17, 1 |||
 304 |          |          |  0.23922 |  0.30200 | i  |  7,17, 1 |||
 305 |          |          |  0.38039 |  0.22489 | i  |  8,17, 1 |||
 306 |          |          |  0.38824 | -0.01872 | i  |  9,17, 1 |||
 307 |          |          |  0.30588 |  0.14879 | i  | 10,17, 1 |||
 308 |          |          |  0.37647 |  0.75789 | i  | 11,17, 1 |||
 309 |          |          |  0.23922 |  0.12457 | i  | 12,17, 1 |||
 310 |          |          |  0.22745 | -0.11644 | i  | 13,17, 1 |||
 311 |          |          |  0.26274 | -0.99583 | i  | 14,17, 1 |||
 312 |          |          |  0.19608 |  0.99080 | i  | 15,17, 1 |||
 313 |          |          |  0.27843 | -0.52400 | i  | 16,17, 1 |||
 314 |          |          |  0.38824 |  0.05237 | i  | 17,17, 1 |||
 315 |          |          |  0.49804 | -0.80614 | i  | 18,17, 1 |||
 316 |          |          |  0.54118 |  0.93551 | i  | 19,17, 1 |||
 317 |          |          |  0.52157 | -0.98648 | i  | 20,17, 1 |||
 318 |          |          |  0.50588 | -0.87180 | i  | 21,17, 1 |||
 319 |          |          |  0.49412 |  0.19468 | i  | 22,17, 1 |||
 320 |          |          |  0.54118 | -0.42090 | i  | 23,17, 1 |||
 321 |          |          |  0.73333 |  0.14483 | i  | 24,17, 1 |||
 322 |          |          |  0.38039 |  0.87433 | i  |  5,18, 1 |||
 323 |          |          |  0.10196 |  0.82951 | i  |  6,18, 1 |||
 324 |          |          |  0.14902 | -0.07871 | i  |  7,18, 1 |||
 325 |          |          |  0.43137 | -0.21530 | i  |  8,18, 1 |||
 326 |          |          |  0.33333 | -0.48736 | i  |  9,18, 1 |||
 327 |          |          |  0.30980 |  0.41985 | i  | 10,18, 1 |||
 328 |          |          |  0.32157 | -0.87581 | i  | 11,18, 1 |||
 329 |          |          |  0.27451 | -0.27337 | i  | 12,18, 1 |||
 330 |          |          |  0.32941 |  0.82524 | i  | 13,18, 1 |||
 331 |          |          |  0.28235 |  0.86096 | i  | 14,18, 1 |||
 332 |          |          |  0.26667 | -0.64684 | i  | 15,18, 1 |||
 333 |          |          |  0.49804 |  0.70968 | i  | 16,18, 1 |||
 334 |          |          |  0.58431 | -0.22960 | i  | 17,18, 1 |||
 335 |          |          |  0.56078 |  0.07941 | i  | 18,18, 1 |||
 336 |          |          |  0.54118 |  0.22843 | i  | 19,18, 1 |||
 337 |          |          |  0.52549 | -0.15186 | i  | 20,18, 1 |||
 338 |          |          |  0.50588 |  0.87787 | i  | 21,18, 1 |||
 339 |          |          |  0.50980 |  0.89543 | i  | 22,18, 1 |||
 340 |          |          |  0.56471 |  0.66902 | i  | 23,18, 1 |||
 341 |          |          |  0.69020 | -0.27297 | i  | 24,18, 1 |||
 342 |          |          |  0.35294 | -0.56685 | i  |  5,19, 1 |||
 343 |          |          |  0.10588 | -0.02452 | i  |  6,19, 1 |||
 344 |          |          |  0.19216 |  0.83753 | i  |  7,19, 1 |||
 345 |          |          |  0.19608 | -0.86047 | i  |  8,19, 1 |||
 346 |          |          |  0.18039 | -0.14765 | i  |  9,19, 1 |||
 347 |          |          |  0.32549 |  0.09646 | i  | 10,19, 1 |||
 348 |          |          |  0.27059 |  0.98096 | i  | 11,19, 1 |||
 349 |          |          |  0.10980 | -0.84121 | i  | 12,19, 1 |||
 350 |          |          |  0.23137 |  0.32658 | i  | 13,19, 1 |||
 351 |          |          |  0.25098 |  0.96599 | i  | 14,19, 1 |||
 352 |          |          |  0.21569 |  0.26651 | i  | 15,19, 1 |||
 353 |          |          |  0.56471 |  0.59570 | i  | 16,19, 1 |||
 354 |          |          |  0.62353 |  0.13661 | i  | 17,19, 1 |||
 355 |          |          |  0.56078 | -0.68623 | i  | 18,19, 1 |||
 356 |          |          |  0.53725 | -0.23601 | i  | 19,19, 1 |||
 357 |          |          |  0.52157 |  0.58992 | i  | 20,19, 1 |||
 358 |          |          |  0.50196 |  0.57872 | i  | 21,19, 1 |||
 359 |          |          |  0.49412 | -0.31202 | i  | 22,19, 1 |||
 360 |          |          |  0.51372 | -0.97509 | i  | 23,19, 1 |||
 361 |          |          |  0.58431 | -0.59954 | i  | 24,19, 1 |||
 362 |          |          |  0.28235 |  0.49868 | i  |  5,20, 1 |||
 363 |          |          |  0.07451 |  0.50633 | i  |  6,20, 1 |||
 364 |          |          |  0.10980 | -0.78105 | i  |  7,20, 1 |||
 365 |          |          |  0.25882 |  0.78524 | i  |  8,20, 1 |||
 366 |          |          |  0.23529 |  0.51375 | i  |  9,20, 1 |||
 367 |          |          |  0.30980 | -0.58737 | i  | 10,20, 1 |||
 368 |          |          |  0.27059 | -0.55144 | i  | 11,20, 1 |||
 369 |          |          |  0.16863 |  0.66135 | i  | 12,20, 1 |||
 370 |          |          |  0.24706 |  0.34718 | i  | 13,20, 1 |||
 371 |          |          |  0.30588 |  0.21123 | i  | 14,20, 1 |||
 372 |          |          |  0.29020 |  0.07385 | i  | 15,20, 1 |||
 373 |          |          |  0.63137 | -0.91297 | i  | 16,20, 1 |||
 374 |          |          |  0.67843 | -0.24454 | i  | 17,20, 1 |||
 375 |          |          |  0.59608 |  0.77139 | i  | 18,20, 1 |||
 376 |          |          |  0.56078 |  0.01816 | i  | 19,20, 1 |||
 377 |          |          |  0.54118 | -0.33479 | i  | 20,20, 1 |||
 378 |          |          |  0.50588 | -0.53374 | i  | 21,20, 1 |||
 379 |          |          |  0.49412 |  0.83159 | i  | 22,20, 1 |||
 380 |          |          |  0.48627 |  0.92940 | i  | 23,20, 1 |||
 381 |          |          |  0.50980 |  0.99219 | i  | 24,20, 1 |||
 382 |          |          |  0.20784 | -0.24687 | i  |  5,21, 1 |||
 383 |          |          |  0.15294 |  0.95790 | i  |  6,21, 1 |||
 384 |          |          |  0.14902 |  0.55565 | i  |  7,21, 1 |||
 385 |          |          |  0.21177 |  0.11422 | i  |  8,21, 1 |||
 386 |          |          |  0.22353 |  0.85883 | i  |  9,21, 1 |||
 387 |          |          |  0.20784 | -0.27363 | i  | 10,21, 1 |||
 388 |          |          |  0.17647 | -0.96598 | i  | 11,21, 1 |||
 389 |          |          |  0.24706 | -0.44883 | i  | 12,21, 1 |||
 390 |          |          |  0.27843 | -0.23101 | i  | 13,21, 1 |||
 391 |          |          |  0.27451 |  0.06310 | i  | 14,21, 1 |||
 392 |          |          |  0.52157 |  0.23714 | i  | 15,21, 1 |||
 393 |          |          |  0.71372 |  0.33910 | i  | 16,21, 1 |||
 394 |          |          |  0.55294 | -0.12331 | i  | 17,21, 1 |||
 395 |          |          |  0.57647 | -0.51897 | i  | 18,21, 1 |||
 396 |          |          |  0.40392 | -0.40973 | i  | 19,21, 1 |||
 397 |          |          |  0.75294 | -0.13813 | i  | 20,21, 1 |||
 398 |          |          |  0.67451 | -0.87032 | i  | 21,21, 1 |||
 399 |          |          |  0.56078 | -0.55880 | i  | 22,21, 1 |||
 400 |          |          |  0.50196 | -0.45310 | i  | 23,21, 1 |||
 401 |          |          |  0.51765 | -0.28920 | i  | 24,21, 1 |||
 402 |          |          |  0.18039 |  0.29848 | i  | 27, 2, 1 |||
 403 |          |          |  0.21961 | -0.67776 | i  | 28, 2, 1 |||
 404 |          |          |  0.23529 | -0.65103 | i  | 29, 2, 1 |||
 405 |          |          |  0.25490 |  0.25001 | i  | 30, 2, 1 |||
 406 |          |          |  0.27451 |  0.24580 | i  | 31, 2, 1 |||
 407 |          |          |  0.28235 | -0.56815 | i  | 32, 2, 1 |||
 408 |          |          |  0.21177 |  0.92000 | i  | 33, 2, 1 |||
 409 |          |          |  0.41177 | -0.61568 | i  | 34, 2, 1 |||
 410 |          |          |  0.80000 | -0.56327 | i  | 35, 2, 1 |||
 411 |          |          |  0.75686 | -0.58901 | i  | 36, 2, 1 |||
 412 |          |          |  0.72157 |  0.33920 | i  | 37, 2, 1 |||
 413 |          |          |  0.69020 |  0.73321 | i  | 38, 2, 1 |||
 414 |          |          |  0.66274 | -0.45807 | i  | 39, 2, 1 |||
 415 |          |          |  0.66667 |  0.37916 | i  | 40, 2, 1 |||
 416 |          |          |  0.75294 |  0.88144 | i  | 41, 2, 1 |||
 417 |          |          |  0.71765 | -0.89238 | i  | 42, 2, 1 |||
 418 |          |          |  0.64706 | -0.28782 | i  | 43, 2, 1 |||
 419 |          |          |  0.72941 |  0.70790 | i  | 44, 2, 1 |||
 420 |          |          |  0.81177 | -0.88866 | i  | 45, 2, 1 |||
 421 |          |          |  0.77255 | -0.94034 | i  | 46, 2, 1 |||
 422 |          |          |  0.23529 | -0.98414 | i  | 27, 3, 1 |||
 423 |          |          |  0.23922 | -0.30908 | i  | 28, 3, 1 |||
 424 |          |          |  0.25098 |  0.98811 | i  | 29, 3, 1 |||
 425 |          |          |  0.27451 | -0.88417 | i  | 30, 3, 1 |||
 426 |          |          |  0.29804 | -0.57119 | i  | 31, 3, 1 |||
 427 |          |          |  0.28627 | -0.74942 | i  | 32, 3, 1 |||
 428 |          |          |  0.19216 | -0.16236 | i  | 33, 3, 1 |||
 429 |          |          |  0.28235 |  0.99275 | i  | 34, 3, 1 |||
 430 |          |          |  0.45490 | -0.34066 | i  | 35, 3, 1 |||
 431 |          |          |  0.51765 |  0.67154 | i  | 36, 3, 1 |||
 432 |          |          |  0.69020 | -0.18505 | i  | 37, 3, 1 |||
 433 |          |          |  0.69804 | -0.89435 | i  | 38, 3, 1 |||
 434 |          |          |  0.66667 |  0.71535 | i  | 39, 3, 1 |||
 435 |          |          |  0.69804 | -0.98295 | i  | 40, 3, 1 |||
 436 |          |          |  0.78824 |  0.01849 | i  | 41, 3, 1 |||
 437 |          |          |  0.83922 |  0.58184 | i  | 42, 3, 1 |||
 438 |          |          |  0.84314 | -0.57604 | i  | 43, 3, 1 |||
 439 |          |          |  0.74510 |  0.04011 | i  | 44, 3, 1 |||
 440 |          |          |  0.80784 | -0.39971 | i  | 45, 3, 1 |||
 441 |          |          |  0.83137 |  0.94682 | i  | 46, 3, 1 |||
 442 |          |          |  0.23529 | -0.23111 | i  | 27, 4, 1 |||
 443 |          |          |  0.25098 |  0.07089 | i  | 28, 4, 1 |||
 444 |          |          |  0.26667 | -0.61513 | i  | 29, 4, 1 |||
 445 |          |          |  0.27451 | -0.08533 | i  | 30, 4, 1 |||
 446 |          |          |  0.31372 |  0.80429 | i  | 31, 4, 1 |||
 447 |          |          |  0.18039 |  0.41006 | i  | 32, 4, 1 |||
 448 |          |          |  0.12157 |  0.97531 | i  | 33, 4, 1 |||
 449 |          |          |  0.21569 |  0.13715 | i  | 34, 4, 1 |||
 450 |          |          |  0.26274 | -0.35622 | i  | 35, 4, 1 |||
 451 |          |          |  0.24314 |  0.39232 | i  | 36, 4, 1 |||
 452 |          |          |  0.42745 | -0.13357 | i  | 37, 4, 1 |||
 453 |          |          |  0.66667 |  0.29081 | i  | 38, 4, 1 |||
 454 |          |          |  0.66667 |  0.43671 | i  | 39, 4, 1 |||
 455 |          |          |  0.70980 | -0.44022 | i  | 40, 4, 1 |||
 456 |          |          |  0.78039 | -0.54890 | i  | 41, 4, 1 |||
 457 |          |          |  0.76471 | -0.95519 | i  | 42, 4, 1 |||
 458 |          |          |  0.76078 |  0.87373 | i  | 43, 4, 1 |||
 459 |          |          |  0.70196 |  0.69649 | i  | 44, 4, 1 |||
 460 |          |          |  0.76863 | -0.78837 | i  | 45, 4, 1 |||
 461 |          |          |  0.80392 | -0.11397 | i  | 46, 4, 1 |||
 462 |          |          |  0.24706 | -0.62403 | i  | 27, 5, 1 |||
 463 |          |          |  0.25098 |  0.06358 | i  | 28, 5, 1 |||
 464 |          |          |  0.27451 |  0.02210 | i  | 29, 5, 1 |||
 465 |          |          |  0.28627 |  0.70610 | i  | 30, 5, 1 |||
 466 |          |          |  0.36471 |  0.19769 | i  | 31, 5, 1 |||
 467 |          |          |  0.29804 | -0.37636 | i  | 32, 5, 1 |||
 468 |          |          |  0.21569 | -0.99946 | i  | 33, 5, 1 |||
 469 |          |          |  0.26274 |  0.79590 | i  | 34, 5, 1 |||
 470 |          |          |  0.24706 | -0.08738 | i  | 35, 5, 1 |||
 471 |          |          |  0.28235 |  0.78047 | i  | 36, 5, 1 |||
 472 |          |          |  0.31372 | -0.63225 | i  | 37, 5, 1 |||
 473 |          |          |  0.68628 | -0.64092 | i  | 38, 5, 1 |||
 474 |          |          |  0.66667 |  0.57977 | i  | 39, 5, 1 |||
 475 |          |          |  0.69020 | -0.04222 | i  | 40, 5, 1 |||
 476 |          |          |  0.77647 | -0.61711 | i  | 41, 5, 1 |||
 477 |          |          |  0.79216 |  0.85306 | i  | 42, 5, 1 |||
 478 |          |          |  0.76471 |  0.93335 | i  | 43, 5, 1 |||
 479 |          |          |  0.72157 | -0.18701 | i  | 44, 5, 1 |||
 480 |          |          |  0.75294 |  0.69475 | i  | 45, 5, 1 |||
 481 |          |          |  0.77647 |  0.99299 | i  | 46, 5, 1 |||
 482 |          |          |  0.25490 |  0.57105 | i  | 27, 6, 1 |||
 483 |          |          |  0.26667 |  0.98914 | i  | 28, 6, 1 |||
 484 |          |          |  0.27059 | -0.09710 | i  | 29, 6, 1 |||
 485 |          |          |  0.32157 |  0.80548 | i  | 30, 6, 1 |||
 486 |          |          |  0.29804 |  0.90219 | i  | 31, 6, 1 |||
 487 |          |          |  0.29804 |  0.85151 | i  | 32, 6, 1 |||
 488 |          |          |  0.28235 |  0.26053 | i  | 33, 6, 1 |||
 489 |          |          |  0.30980 | -0.01942 | i  | 34, 6, 1 |||
 490 |          |          |  0.29020 | -0.14407 | i  | 35, 6, 1 |||
 491 |          |          |  0.30980 | -0.21750 | i  | 36, 6, 1 |||
 492 |          |          |  0.30980 |  0.23971 | i  | 37, 6, 1 |||
 493 |          |          |  0.54118 | -0.67559 | i  | 38, 6, 1 |||
 494 |          |          |  0.67451 | -0.44566 | i  | 39, 6, 1 |||
 495 |          |          |  0.65490 | -0.69063 | i  | 40, 6, 1 |||
 496 |          |          |  0.69804 | -0.94622 | i  | 41, 6, 1 |||
 497 |          |          |  0.71765 |  0.33502 | i  | 42, 6, 1 |||
 498 |          |          |  0.80392 |  0.55828 | i  | 43, 6, 1 |||
 499 |          |          |  0.83922 |  0.94699 | i  | 44, 6, 1 |||
 500 |          |          |  0.79608 |  0.59599 | i  | 45, 6, 1 |||
 501 |          |          |  0.78824 |  0.87857 | i  | 46, 6, 1 |||
 502 |          |          |  0.25490 |  0.34551 | i  | 27, 7, 1 |||
 503 |          |          |  0.27059 | -0.66794 | i  | 28, 7, 1 |||
 504 |          |          |  0.27843 | -0.01880 | i  | 29, 7, 1 |||
 505 |          |          |  0.36863 |  0.29515 | i  | 30, 7, 1 |||
 506 |          |          |  0.23922 |  0.55229 | i  | 31, 7, 1 |||
 507 |          |          |  0.26274 |  0.52504 | i  | 32, 7, 1 |||
 508 |          |          |  0.29804 |  0.80964 | i  | 33, 7, 1 |||
 509 |          |          |  0.29804 |  0.76744 | i  | 34, 7, 1 |||
 510 |          |          |  0.31765 | -0.41156 | i  | 35, 7, 1 |||
 511 |          |          |  0.28235 | -0.37115 | i  | 36, 7, 1 |||
 512 |          |          |  0.27451 |  0.22007 | i  | 37, 7, 1 |||
 513 |          |          |  0.33333 |  0.79257 | i  | 38, 7, 1 |||
 514 |          |          |  0.72941 | -0.36940 | i  | 39, 7, 1 |||
 515 |          |          |  0.72157 |  0.82661 | i  | 40, 7, 1 |||
 516 |          |          |  0.71765 |  0.04226 | i  | 41, 7, 1 |||
 517 |          |          |  0.70588 | -0.45034 | i  | 42, 7, 1 |||
 518 |          |          |  0.80784 | -0.96579 | i  | 43, 7, 1 |||
 519 |          |          |  0.82353 | -0.87193 | i  | 44, 7, 1 |||
 520 |          |          |  0.78039 |  0.14423 | i  | 45, 7, 1 |||
 521 |          |          |  0.79608 | -0.10902 | i  | 46, 7, 1 |||
 522 |          |          |  0.26274 | -0.07291 | i  | 27, 8, 1 |||
 523 |          |          |  0.26667 | -0.56831 | i  | 28, 8, 1 |||
 524 |          |          |  0.29804 | -0.88460 | i  | 29, 8, 1 |||
 525 |          |          |  0.38431 | -0.26675 | i  | 30, 8, 1 |||
 526 |          |          |  0.28627 |  0.41994 | i  | 31, 8, 1 |||
 527 |          |          |  0.29412 |  0.69744 | i  | 32, 8, 1 |||
 528 |          |          |  0.30588 |  0.41674 | i  | 33, 8, 1 |||
 529 |          |          |  0.33726 |  0.51296 | i  | 34, 8, 1 |||
 530 |          |          |  0.29020 |  0.47411 | i  | 35, 8, 1 |||
 531 |          |          |  0.29412 | -0.83226 | i  | 36, 8, 1 |||
 532 |          |          |  0.29020 | -0.78062 | i  | 37, 8, 1 |||
 533 |          |          |  0.32549 |  0.91310 | i  | 38, 8, 1 |||
 534 |          |          |  0.60784 | -0.79474 | i  | 39, 8, 1 |||
 535 |          |          |  0.71765 |  0.59848 | i  | 40, 8, 1 |||
 536 |          |          |  0.81569 | -0.53456 | i  | 41, 8, 1 |||
 537 |          |          |  0.80392 | -0.31863 | i  | 42, 8, 1 |||
 538 |          |          |  0.79608 |  0.19401 | i  | 43, 8, 1 |||
 539 |          |          |  0.80784 |  0.64057 | i  | 44, 8, 1 |||
 540 |          |          |  0.73725 | -0.18833 | i  | 45, 8, 1 |||
 541 |          |          |  0.76863 | -0.45331 | i  | 46, 8, 1 |||
 542 |          |          |  0.26667 |  0.35903 | i  | 27, 9, 1 |||
 543 |          |          |  0.27451 |  0.95952 | i  | 28, 9, 1 |||
 544 |          |          |  0.32549 |  0.61824 | i  | 29, 9, 1 |||
 545 |          |          |  0.36078 |  0.10233 | i  | 30, 9, 1 |||
 546 |          |          |  0.24314 | -0.01807 | i  | 31, 9, 1 |||
 547 |          |          |  0.25098 |  0.85576 | i  | 32, 9, 1 |||
 548 |          |          |  0.16471 | -0.94908 | i  | 33, 9, 1 |||
 549 |          |          |  0.12549 |  0.25259 | i  | 34, 9, 1 |||
 550 |          |          |  0.20784 | -0.36640 | i  | 35, 9, 1 |||
 551 |          |          |  0.26274 |  0.35424 | i  | 36, 9, 1 |||
 552 |          |          |  0.25098 | -0.32714 | i  | 37, 9, 1 |||
 553 |          |          |  0.24706 | -0.79647 | i  | 38, 9, 1 |||
 554 |          |          |  0.44314 |  0.83214 | i  | 39, 9, 1 |||
 555 |          |          |  0.67451 |  0.61452 | i  | 40, 9, 1 |||
 556 |          |          |  0.80392 |  0.07950 | i  | 41, 9, 1 |||
 557 |          |          |  0.89020 |  0.89700 | i  | 42, 9, 1 |||
 558 |          |          |  0.85490 | -0.72221 | i  | 43, 9, 1 |||
 559 |          |          |  0.80392 | -0.43679 | i  | 44, 9, 1 |||
 560 |          |          |  0.74118 | -0.38843 | i  | 45, 9, 1 |||
 561 |          |          |  0.80000 |  0.71668 | i  | 46, 9, 1 |||
 562 |          |          |  0.26274 | -0.80761 | i  | 27,10, 1 |||
 563 |          |          |  0.28235 | -0.29828 | i  | 28,10, 1 |||
 564 |          |          |  0.37255 | -0.12807 | i  | 29,10, 1 |||
 565 |          |          |  0.29804 | -0.19798 | i  | 30,10, 1 |||
 566 |          |          |  0.25490 | -0.40912 | i  | 31,10, 1 |||
 567 |          |          |  0.26667 | -0.22656 | i  | 32,10, 1 |||
 568 |          |          |  0.12157 | -0.45570 | i  | 33,10, 1 |||
 569 |          |          |  0.06274 | -0.44548 | i  | 34,10, 1 |||
 570 |          |          |  0.13725 |  0.90057 | i  | 35,10, 1 |||
 571 |          |          |  0.32157 |  0.40533 | i  | 36,10, 1 |||
 572 |          |          |  0.27059 |  0.20807 | i  | 37,10, 1 |||
 573 |          |          |  0.27843 |  0.16521 | i  | 38,10, 1 |||
 574 |          |          |  0.41177 | -0.89154 | i  | 39,10, 1 |||
 575 |          |          |  0.72549 |  0.83618 | i  | 40,10, 1 |||
 576 |          |          |  0.81569 | -0.22598 | i  | 41,10, 1 |||
 577 |          |          |  0.83922 |  0.08293 | i  | 42,10, 1 |||
 578 |          |          |  0.80000 | -0.83428 | i  | 43,10, 1 |||
 579 |          |          |  0.80000 |  0.61548 | i  | 44,10, 1 |||
 580 |          |          |  0.75294 |  0.60939 | i  | 45,10, 1 |||
 581 |          |          |  0.72549 |  0.22337 | i  | 46,10, 1 |||
 582 |          |          |  0.27451 |  0.53747 | i  | 27,11, 1 |||
 583 |          |          |  0.29020 | -0.24385 | i  | 28,11, 1 |||
 584 |          |          |  0.39608 |  0.12657 | i  | 29,11, 1 |||
 585 |          |          |  0.26667 |  0.92524 | i  | 30,11, 1 |||
 586 |          |          |  0.27843 |  0.10005 | i  | 31,11, 1 |||
 587 |          |          |  0.25098 | -0.35208 | i  | 32,11, 1 |||
 588 |          |          |  0.30980 |  0.79361 | i  | 33,11, 1 |||
 589 |          |          |  0.19216 | -0.17584 | i  | 34,11, 1 |||
 590 |          |          |  0.21569 |  0.82100 | i  | 35,11, 1 |||
 591 |          |          |  0.37647 |  0.32531 | i  | 36,11, 1 |||
 592 |          |          |  0.30980 |  0.37239 | i  | 37,11, 1 |||
 593 |          |          |  0.31372 |  0.16102 | i  | 38,11, 1 |||
 594 |          |          |  0.29020 | -0.70882 | i  | 39,11, 1 |||
 595 |          |          |  0.40784 | -0.97953 | i  | 40,11, 1 |||
 596 |          |          |  0.47059 | -0.64310 | i  | 41,11, 1 |||
 597 |          |          |  0.70588 |  0.88785 | i  | 42,11, 1 |||
 598 |          |          |  0.69020 | -0.08503 | i  | 43,11, 1 |||
 599 |          |          |  0.69804 | -0.25772 | i  | 44,11, 1 |||
 600 |          |          |  0.67059 | -0.30916 | i  | 45,11, 1 |||
 601 |          |          |  0.58039 | -0.80671 | i  | 46,11, 1 |||
 602 |          |          |  0.27843 |  0.82374 | i  | 27,12, 1 |||
 603 |          |          |  0.30588 |  0.68278 | i  | 28,12, 1 |||
 604 |          |          |  0.38039 | -0.01502 | i  | 29,12, 1 |||
 605 |          |          |  0.25882 |  0.74707 | i  | 30,12, 1 |||
 606 |          |          |  0.26274 | -0.00271 | i  | 31,12, 1 |||
 607 |          |          |  0.27451 | -0.82640 | i  | 32,12, 1 |||
 608 |          |          |  0.29804 |  0.68822 | i  | 33,12, 1 |||
 609 |          |          |  0.30588 | -0.34211 | i  | 34,12, 1 |||
 610 |          |          |  0.34902 |  0.01692 | i  | 35,12, 1 |||
 611 |          |          |  0.34510 |  0.65844 | i  | 36,12, 1 |||
 612 |          |          |  0.29020 |  0.52363 | i  | 37,12, 1 |||
 613 |          |          |  0.25490 | -0.45408 | i  | 38,12, 1 |||
 614 |          |          |  0.23137 |  0.90630 | i  | 39,12, 1 |||
 615 |          |          |  0.34510 |  0.51587 | i  | 40,12, 1 |||
 616 |          |          |  0.57647 |  0.47884 | i  | 41,12, 1 |||
 617 |          |          |  0.62745 | -0.46415 | i  | 42,12, 1 |||
 618 |          |          |  0.66667 |  0.93926 | i  | 43,12, 1 |||
 619 |          |          |  0.63137 |  0.70516 | i  | 44,12, 1 |||
 620 |          |          |  0.56078 | -0.29423 | i  | 45,12, 1 |||
 621 |          |          |  0.54902 | -0.23936 | i  | 46,12, 1 |||
 622 |          |          |  0.28235 |  0.61899 | i  | 27,13, 1 |||
 623 |          |          |  0.36471 | -0.89217 | i  | 28,13, 1 |||
 624 |          |          |  0.34510 |  0.77371 | i  | 29,13, 1 |||
 625 |          |          |  0.24706 |  0.10432 | i  | 30,13, 1 |||
 626 |          |          |  0.25490 | -0.50519 | i  | 31,13, 1 |||
 627 |          |          |  0.29804 |  0.43266 | i  | 32,13, 1 |||
 628 |          |          |  0.32941 | -0.76305 | i  | 33,13, 1 |||
 629 |          |          |  0.28235 | -0.52759 | i  | 34,13, 1 |||
 630 |          |          |  0.32941 | -0.46933 | i  | 35,13, 1 |||
 631 |          |          |  0.33726 | -0.18052 | i  | 36,13, 1 |||
 632 |          |          |  0.34902 |  0.79480 | i  | 37,13, 1 |||
 633 |          |          |  0.28235 |  0.52329 | i  | 38,13, 1 |||
 634 |          |          |  0.23922 |  0.54427 | i  | 39,13, 1 |||
 635 |          |          |  0.57647 | -0.66063 | i  | 40,13, 1 |||
 636 |          |          |  0.61961 | -0.71758 | i  | 41,13, 1 |||
 637 |          |          |  0.59608 | -0.72140 | i  | 42,13, 1 |||
 638 |          |          |  0.58824 |  0.18638 | i  | 43,13, 1 |||
 639 |          |          |  0.59608 | -0.18965 | i  | 44,13, 1 |||
 640 |          |          |  0.55294 | -0.85682 | i  | 45,13, 1 |||
 641 |          |          |  0.53333 | -0.29435 | i  | 46,13, 1 |||
 642 |          |          |  0.29412 | -0.86762 | i  | 27,14, 1 |||
 643 |          |          |  0.37647 |  0.43802 | i  | 28,14, 1 |||
 644 |          |          |  0.28235 | -0.82141 | i  | 29,14, 1 |||
 645 |          |          |  0.21177 | -0.32754 | i  | 30,14, 1 |||
 646 |          |          |  0.26274 | -0.05940 | i  | 31,14, 1 |||
 647 |          |          |  0.31372 | -0.69821 | i  | 32,14, 1 |||
 648 |          |          |  0.30980 | -0.50253 | i  | 33,14, 1 |||
 649 |          |          |  0.29804 | -0.34544 | i  | 34,14, 1 |||
 650 |          |          |  0.23529 | -0.56221 | i  | 35,14, 1 |||
 651 |          |          |  0.27059 |  0.53679 | i  | 36,14, 1 |||
 652 |          |          |  0.30588 |  0.40831 | i  | 37,14, 1 |||
 653 |          |          |  0.28235 | -0.64841 | i  | 38,14, 1 |||
 654 |          |          |  0.20784 |  0.78535 | i  | 39,14, 1 |||
 655 |          |          |  0.56471 | -0.05150 | i  | 40,14, 1 |||
 656 |          |          |  0.61961 |  0.20449 | i  | 41,14, 1 |||
 657 |          |          |  0.60000 |  0.67715 | i  | 42,14, 1 |||
 658 |          |          |  0.58824 |  0.54393 | i  | 43,14, 1 |||
 659 |          |          |  0.65098 |  0.82647 | i  | 44,14, 1 |||
 660 |          |          |  0.64314 | -0.46611 | i  | 45,14, 1 |||
 661 |          |          |  0.59608 | -0.76559 | i  | 46,14, 1 |||
 662 |          |          |  0.30196 |  0.28814 | i  | 27,15, 1 |||
 663 |          |          |  0.38039 |  0.82211 | i  | 28,15, 1 |||
 664 |          |          |  0.21569 | -0.55278 | i  | 29,15, 1 |||
 665 |          |          |  0.21961 |  0.79542 | i  | 30,15, 1 |||
 666 |          |          |  0.16078 | -0.45068 | i  | 31,15, 1 |||
 667 |          |          |  0.34902 | -0.80417 | i  | 32,15, 1 |||
 668 |          |          |  0.33333 |  0.87319 | i  | 33,15, 1 |||
 669 |          |          |  0.18431 | -0.03057 | i  | 34,15, 1 |||
 670 |          |          |  0.21177 |  0.21963 | i  | 35,15, 1 |||
 671 |          |          |  0.32549 |  0.63499 | i  | 36,15, 1 |||
 672 |          |          |  0.32549 | -0.26458 | i  | 37,15, 1 |||
 673 |          |          |  0.26667 | -0.72488 | i  | 38,15, 1 |||
 674 |          |          |  0.21961 | -0.10668 | i  | 39,15, 1 |||
 675 |          |          |  0.30588 |  0.65615 | i  | 40,15, 1 |||
 676 |          |          |  0.59608 |  0.23397 | i  | 41,15, 1 |||
 677 |          |          |  0.60000 |  0.41538 | i  | 42,15, 1 |||
 678 |          |          |  0.59216 | -0.97259 | i  | 43,15, 1 |||
 679 |          |          |  0.60000 | -0.36492 | i  | 44,15, 1 |||
 680 |          |          |  0.68628 | -0.03724 | i  | 45,15, 1 |||
 681 |          |          |  0.72549 | -0.51990 | i  | 46,15, 1 |||
 682 |          |          |  0.32549 |  0.06811 | i  | 27,16, 1 |||
 683 |          |          |  0.32941 |  0.40244 | i  | 28,16, 1 |||
 684 |          |          |  0.26274 | -0.01209 | i  | 29,16, 1 |||
 685 |          |          |  0.13333 |  0.95159 | i  | 30,16, 1 |||
 686 |          |          |  0.14118 |  0.82553 | i  | 31,16, 1 |||
 687 |          |          |  0.29804 | -0.40717 | i  | 32,16, 1 |||
 688 |          |          |  0.21961 |  0.20938 | i  | 33,16, 1 |||
 689 |          |          |  0.17647 | -0.76541 | i  | 34,16, 1 |||
 690 |          |          |  0.19216 | -0.87978 | i  | 35,16, 1 |||
 691 |          |          |  0.27843 | -0.62713 | i  | 36,16, 1 |||
 692 |          |          |  0.30980 |  0.17042 | i  | 37,16, 1 |||
 693 |          |          |  0.22745 |  0.54563 | i  | 38,16, 1 |||
 694 |          |          |  0.29804 | -0.97909 | i  | 39,16, 1 |||
 695 |          |          |  0.52157 | -0.52088 | i  | 40,16, 1 |||
 696 |          |          |  0.61961 | -0.15783 | i  | 41,16, 1 |||
 697 |          |          |  0.60392 | -0.46224 | i  | 42,16, 1 |||
 698 |          |          |  0.58431 |  0.51465 | i  | 43,16, 1 |||
 699 |          |          |  0.57647 |  0.68949 | i  | 44,16, 1 |||
 700 |          |          |  0.69412 |  0.13400 | i  | 45,16, 1 |||
 701 |          |          |  0.77255 |  0.26190 | i  | 46,16, 1 |||
 702 |          |          |  0.34510 | -0.91358 | i  | 27,17, 1 |||
 703 |          |          |  0.18823 | -0.20188 | i  | 28,17, 1 |||
 704 |          |          |  0.17647 | -0.72453 | i  | 29,17, 1 |||
 705 |          |          |  0.21569 |  0.82460 | i  | 30,17, 1 |||
 706 |          |          |  0.27843 | -0.95762 | i  | 31,17, 1 |||
 707 |          |          |  0.29804 | -0.92794 | i  | 32,17, 1 |||
 708 |          |          |  0.33726 |  0.56215 | i  | 33,17, 1 |||
 709 |          |          |  0.22353 |  0.33756 | i  | 34,17, 1 |||
 710 |          |          |  0.21569 |  0.31637 | i  | 35,17, 1 |||
 711 |          |          |  0.23137 |  0.09196 | i  | 36,17, 1 |||
 712 |          |          |  0.20000 |  0.00296 | i  | 37,17, 1 |||
 713 |          |          |  0.27059 |  0.00431 | i  | 38,17, 1 |||
 714 |          |          |  0.41177 |  0.49662 | i  | 39,17, 1 |||
 715 |          |          |  0.56078 |  0.21358 | i  | 40,17, 1 |||
 716 |          |          |  0.62353 |  0.36779 | i  | 41,17, 1 |||
 717 |          |          |  0.60000 | -0.91663 | i  | 42,17, 1 |||
 718 |          |          |  0.58431 |  0.66401 | i  | 43,17, 1 |||
 719 |          |          |  0.57255 | -0.12583 | i  | 44,17, 1 |||
 720 |          |          |  0.60392 |  0.19719 | i  | 45,17, 1 |||
 721 |          |          |  0.74510 | -0.76810 | i  | 46,17, 1 |||
 722 |          |          |  0.36471 |  0.82584 | i  | 27,18, 1 |||
 723 |          |          |  0.09804 | -0.81008 | i  | 28,18, 1 |||
 724 |          |          |  0.12157 | -0.84577 | i  | 29,18, 1 |||
 725 |          |          |  0.43529 | -0.31464 | i  | 30,18, 1 |||
 726 |          |          |  0.30980 | -0.03820 | i  | 31,18, 1 |||
 727 |          |          |  0.29804 | -0.82329 | i  | 32,18, 1 |||
 728 |          |          |  0.29412 |  0.29583 | i  | 33,18, 1 |||
 729 |          |          |  0.25490 |  0.78081 | i  | 34,18, 1 |||
 730 |          |          |  0.30588 |  0.39147 | i  | 35,18, 1 |||
 731 |          |          |  0.25882 |  0.24752 | i  | 36,18, 1 |||
 732 |          |          |  0.23922 | -0.49119 | i  | 37,18, 1 |||
 733 |          |          |  0.55294 | -0.51096 | i  | 38,18, 1 |||
 734 |          |          |  0.66667 |  0.96374 | i  | 39,18, 1 |||
 735 |          |          |  0.64314 | -0.98954 | i  | 40,18, 1 |||
 736 |          |          |  0.61961 |  0.55491 | i  | 41,18, 1 |||
 737 |          |          |  0.60392 | -0.51582 | i  | 42,18, 1 |||
 738 |          |          |  0.58431 | -0.18458 | i  | 43,18, 1 |||
 739 |          |          |  0.58431 |  0.77202 | i  | 44,18, 1 |||
 740 |          |          |  0.61961 |  0.42827 | i  | 45,18, 1 |||
 741 |          |          |  0.71765 | -0.45888 | i  | 46,18, 1 |||
 742 |          |          |  0.34510 |  0.72550 | i  | 27,19, 1 |||
 743 |          |          |  0.05490 |  0.34202 | i  | 28,19, 1 |||
 744 |          |          |  0.07843 |  0.54681 | i  | 29,19, 1 |||
 745 |          |          |  0.23922 |  0.99916 | i  | 30,19, 1 |||
 746 |          |          |  0.21961 |  0.69784 | i  | 31,19, 1 |||
 747 |          |          |  0.30196 | -0.11278 | i  | 32,19, 1 |||
 748 |          |          |  0.25098 | -0.35787 | i  | 33,19, 1 |||
 749 |          |          |  0.14510 |  0.04491 | i  | 34,19, 1 |||
 750 |          |          |  0.23529 |  0.85137 | i  | 35,19, 1 |||
 751 |          |          |  0.25490 |  0.67973 | i  | 36,19, 1 |||
 752 |          |          |  0.21177 | -0.98355 | i  | 37,19, 1 |||
 753 |          |          |  0.63922 |  0.62359 | i  | 38,19, 1 |||
 754 |          |          |  0.69020 | -0.78243 | i  | 39,19, 1 |||
 755 |          |          |  0.64706 |  0.96789 | i  | 40,19, 1 |||
 756 |          |          |  0.61961 |  0.50414 | i  | 41,19, 1 |||
 757 |          |          |  0.60392 | -0.04653 | i  | 42,19, 1 |||
 758 |          |          |  0.58039 |  0.08857 | i  | 43,19, 1 |||
 759 |          |          |  0.57255 |  0.03955 | i  | 44,19, 1 |||
 760 |          |          |  0.58431 | -0.61746 | i  | 45,19, 1 |||
 761 |          |          |  0.63922 | -0.44377 | i  | 46,19, 1 |||
 762 |          |          |  0.28235 | -0.70203 | i  | 27,20, 1 |||
 763 |          |          |  0.06667 | -0.62892 | i  | 28,20, 1 |||
 764 |          |          |  0.09412 |  0.46431 | i  | 29,20, 1 |||
 765 |          |          |  0.25098 |  0.18081 | i  | 30,20, 1 |||
 766 |          |          |  0.27451 |  0.63802 | i  | 31,20, 1 |||
 767 |          |          |  0.28235 |  0.92680 | i  | 32,20, 1 |||
 768 |          |          |  0.25490 | -0.51939 | i  | 33,20, 1 |||
 769 |          |          |  0.19216 | -0.65842 | i  | 34,20, 1 |||
 770 |          |          |  0.24314 |  0.62794 | i  | 35,20, 1 |||
 771 |          |          |  0.28235 | -0.10002 | i  | 36,20, 1 |||
 772 |          |          |  0.28627 |  0.91258 | i  | 37,20, 1 |||
 773 |          |          |  0.70980 | -0.14537 | i  | 38,20, 1 |||
 774 |          |          |  0.72157 |  0.37676 | i  | 39,20, 1 |||
 775 |          |          |  0.66667 |  0.02241 | i  | 40,20, 1 |||
 776 |          |          |  0.63922 | -0.10673 | i  | 41,20, 1 |||
 777 |          |          |  0.61569 |  0.77717 | i  | 42,20, 1 |||
 778 |          |          |  0.58824 | -0.62668 | i  | 43,20, 1 |||
 779 |          |          |  0.57255 |  0.91058 | i  | 44,20, 1 |||
 780 |          |          |  0.56471 |  0.40268 | i  | 45,20, 1 |||
 781 |          |          |  0.58431 | -0.33498 | i  | 46,20, 1 |||
 782 |          |          |  0.22745 |  0.95087 | i  | 27,21, 1 |||
 783 |          |          |  0.18823 |  0.50248 | i  | 28,21, 1 |||
 784 |          |          |  0.17647 | -0.60170 | i  | 29,21, 1 |||
 785 |          |          |  0.22353 |  0.78601 | i  | 30,21, 1 |||
 786 |          |          |  0.27843 | -0.10441 | i  | 31,21, 1 |||
 787 |          |          |  0.20784 | -0.44456 | i  | 32,21, 1 |||
 788 |          |          |  0.19216 |  0.91854 | i  | 33,21, 1 |||
 789 |          |          |  0.23529 | -0.31823 | i  | 34,21, 1 |||
 790 |          |          |  0.24706 |  0.39924 | i  | 35,21, 1 |||
 791 |          |          |  0.24706 | -0.65208 | i  | 36,21, 1 |||
 792 |          |          |  0.49804 |  0.68828 | i  | 37,21, 1 |||
 793 |          |          |  0.72549 | -0.33101 | i  | 38,21, 1 |||
 794 |          |          |  0.58824 |  0.21556 | i  | 39,21, 1 |||
 795 |          |          |  0.59216 | -0.56958 | i  | 40,21, 1 |||
 796 |          |          |  0.41177 | -0.06237 | i  | 41,21, 1 |||
 797 |          |          |  0.76078 | -0.98106 | i  | 42,21, 1 |||
 798 |          |          |  0.71372 |  0.60660 | i  | 43,21, 1 |||
 799 |          |          |  0.62745 | -0.38407 | i  | 44,21, 1 |||
 800 |          |          |  0.58039 |  0.57606 | i  | 45,21, 1 |||
 801 |          |          |  0.59216 | -0.24860 | i  | 46,21, 1 |||
 802 |          |          |  0.23922 |  0.31630 | i  | 49, 2, 1 |||
 803 |          |          |  0.28627 | -0.15083 | i  | 50, 2, 1 |||
 804 |          |          |  0.30588 | -0.42513 | i  | 51, 2, 1 |||
 805 |          |          |  0.32549 | -0.58128 | i  | 52, 2, 1 |||
 806 |          |          |  0.34510 |  0.46112 | i  | 53, 2, 1 |||
 807 |          |          |  0.30980 | -0.55201 | i  | 54, 2, 1 |||
 808 |          |          |  0.20000 |  0.39854 | i  | 55, 2, 1 |||
 809 |          |          |  0.52549 |  0.72527 | i  | 56, 2, 1 |||
 810 |          |          |  0.92941 |  0.67518 | i  | 57, 2, 1 |||
 811 |          |          |  0.92941 | -0.88341 | i  | 58, 2, 1 |||
 812 |          |          |  0.94118 |  0.05756 | i  | 59, 2, 1 |||
 813 |          |          |  0.94902 |  0.20729 | i  | 60, 2, 1 |||
 814 |          |          |  0.94510 | -0.89514 | i  | 61, 2, 1 |||
 815 |          |          |  0.92941 | -0.42092 | i  | 62, 2, 1 |||
 816 |          |          |  0.92157 |  0.26642 | i  | 63, 2, 1 |||
 817 |          |          |  0.92549 |  0.96332 | i  | 64, 2, 1 |||
 818 |          |          |  0.91373 |  0.64697 | i  | 65, 2, 1 |||
 819 |          |          |  0.91373 |  0.50661 | i  | 66, 2, 1 |||
 820 |          |          |  0.92941 |  0.18597 | i  | 67, 2, 1 |||
 821 |          |          |  0.91765 |  0.14387 | i  | 68, 2, 1 |||
 822 |          |          |  0.29020 |  0.11712 | i  | 49, 3, 1 |||
 823 |          |          |  0.29412 | -0.70914 | i  | 50, 3, 1 |||
 824 |          |          |  0.31372 | -0.81888 | i  | 51, 3, 1 |||
 825 |          |          |  0.34118 | -0.25705 | i  | 52, 3, 1 |||
 826 |          |          |  0.35686 |  0.48979 | i  | 53, 3, 1 |||
 827 |          |          |  0.30196 | -0.82906 | i  | 54, 3, 1 |||
 828 |          |          |  0.20392 |  0.27623 | i  | 55, 3, 1 |||
 829 |          |          |  0.34118 |  0.44013 | i  | 56, 3, 1 |||
 830 |          |          |  0.52941 |  0.85894 | i  | 57, 3, 1 |||
 831 |          |          |  0.63922 | -0.88357 | i  | 58, 3, 1 |||
 832 |          |          |  0.89020 | -0.14994 | i  | 59, 3, 1 |||
 833 |          |          |  0.94510 |  0.66783 | i  | 60, 3, 1 |||
 834 |          |          |  0.94510 |  0.93347 | i  | 61, 3, 1 |||
 835 |          |          |  0.92157 |  0.91461 | i  | 62, 3, 1 |||
 836 |          |          |  0.91373 | -0.63877 | i  | 63, 3, 1 |||
 837 |          |          |  0.93333 |  0.67019 | i  | 64, 3, 1 |||
 838 |          |          |  0.94510 | -0.46649 | i  | 65, 3, 1 |||
 839 |          |          |  0.91765 | -0.84264 | i  | 66, 3, 1 |||
 840 |          |          |  0.92157 |  0.28015 | i  | 67, 3, 1 |||
 841 |          |          |  0.92941 | -0.38785 | i  | 68, 3, 1 |||
 842 |          |          |  0.29020 |  0.23442 | i  | 49, 4, 1 |||
 843 |          |          |  0.30980 | -0.32951 | i  | 50, 4, 1 |||
 844 |          |          |  0.33333 |  0.14219 | i  | 51, 4, 1 |||
 845 |          |          |  0.33726 | -0.57747 | i  | 52, 4, 1 |||
 846 |          |          |  0.36471 | -0.21924 | i  | 53, 4, 1 |||
 847 |          |          |  0.18039 |  0.61366 | i  | 54, 4, 1 |||
 848 |          |          |  0.14510 | -0.08575 | i  | 55, 4, 1 |||
 849 |          |          |  0.26667 | -0.76309 | i  | 56, 4, 1 |||
 850 |          |          |  0.29412 |  0.64388 | i  | 57, 4, 1 |||
 851 |          |          |  0.27843 | -0.41110 | i  | 58, 4, 1 |||
 852 |          |          |  0.50196 |  0.33786 | i  | 59, 4, 1 |||
 853 |          |          |  0.88627 |  0.36347 | i  | 60, 4, 1 |||
 854 |          |          |  0.94118 |  0.82551 | i  | 61, 4, 1 |||
 855 |          |          |  0.92157 | -0.94477 | i  | 62, 4, 1 |||
 856 |          |          |  0.90980 |  0.19899 | i  | 63, 4, 1 |||
 857 |          |          |  0.92157 |  0.53993 | i  | 64, 4, 1 |||
 858 |          |          |  0.92549 |  0.13594 | i  | 65, 4, 1 |||
 859 |          |          |  0.90588 | -0.06984 | i  | 66, 4, 1 |||
 860 |          |          |  0.90980 | -0.33007 | i  | 67, 4, 1 |||
 861 |          |          |  0.91765 | -0.11232 | i  | 68, 4, 1 |||
 862 |          |          |  0.30196 |  0.33748 | i  | 49, 5, 1 |||
 863 |          |          |  0.31372 | -0.92145 | i  | 50, 5, 1 |||
 864 |          |          |  0.33333 |  0.03241 | i  | 51, 5, 1 |||
 865 |          |          |  0.34118 |  0.00079 | i  | 52, 5, 1 |||
 866 |          |          |  0.40784 | -0.90038 | i  | 53, 5, 1 |||
 867 |          |          |  0.29020 |  0.40659 | i  | 54, 5, 1 |||
 868 |          |          |  0.20392 | -0.24718 | i  | 55, 5, 1 |||
 869 |          |          |  0.25882 |  0.72447 | i  | 56, 5, 1 |||
 870 |          |          |  0.27059 | -0.76267 | i  | 57, 5, 1 |||
 871 |          |          |  0.32157 | -0.70502 | i  | 58, 5, 1 |||
 872 |          |          |  0.37647 | -0.46171 | i  | 59, 5, 1 |||
 873 |          |          |  0.94118 |  0.66898 | i  | 60, 5, 1 |||
 874 |          |          |  0.94118 | -0.50620 | i  | 61, 5, 1 |||
 875 |          |          |  0.92941 | -0.73281 | i  | 62, 5, 1 |||
 876 |          |          |  0.92157 | -0.37750 | i  | 63, 5, 1 |||
 877 |          |          |  0.92157 |  0.74967 | i  | 64, 5, 1 |||
 878 |          |          |  0.91765 |  0.69680 | i  | 65, 5, 1 |||
 879 |          |          |  0.90980 |  0.08759 | i  | 66, 5, 1 |||
 880 |          |          |  0.90588 | -0.95066 | i  | 67, 5, 1 |||
 881 |          |          |  0.90196 | -0.98177 | i  | 68, 5, 1 |||
 882 |          |          |  0.30588 | -0.30359 | i  | 49, 6, 1 |||
 883 |          |          |  0.32549 |  0.25212 | i  | 50, 6, 1 |||
 884 |          |          |  0.32549 |  0.54353 | i  | 51, 6, 1 |||
 885 |          |          |  0.37255 | -0.17889 | i  | 52, 6, 1 |||
 886 |          |          |  0.31372 | -0.46792 | i  | 53, 6, 1 |||
 887 |          |          |  0.30980 |  0.25066 | i  | 54, 6, 1 |||
 888 |          |          |  0.27843 |  0.05461 | i  | 55, 6, 1 |||
 889 |          |          |  0.32157 |  0.55212 | i  | 56, 6, 1 |||
 890 |          |          |  0.28235 | -0.05070 | i  | 57, 6, 1 |||
 891 |          |          |  0.34902 | -0.43434 | i  | 58, 6, 1 |||
 892 |          |          |  0.35686 |  0.07522 | i  | 59, 6, 1 |||
 893 |          |          |  0.72157 | -0.28842 | i  | 60, 6, 1 |||
 894 |          |          |  0.94118 | -0.92177 | i  | 61, 6, 1 |||
 895 |          |          |  0.93333 |  0.49182 | i  | 62, 6, 1 |||
 896 |          |          |  0.92157 | -0.82307 | i  | 63, 6, 1 |||
 897 |          |          |  0.91373 | -0.00451 | i  | 64, 6, 1 |||
 898 |          |          |  0.92157 |  0.90733 | i  | 65, 6, 1 |||
 899 |          |          |  0.93333 |  0.22507 | i  | 66, 6, 1 |||
 900 |          |          |  0.91373 | -0.84298 | i  | 67, 6, 1 |||
 901 |          |          |  0.90588 | -0.84341 | i  | 68, 6, 1 |||
 902 |          |          |  0.30980 |  0.45868 | i  | 49, 7, 1 |||
 903 |          |          |  0.32549 | -0.17097 | i  | 50, 7, 1 |||
 904 |          |          |  0.33333 |  0.99435 | i  | 51, 7, 1 |||
 905 |          |          |  0.41177 |  0.44359 | i  | 52, 7, 1 |||
 906 |          |          |  0.25882 | -0.65448 | i  | 53, 7, 1 |||
 907 |          |          |  0.25882 |  0.53973 | i  | 54, 7, 1 |||
 908 |          |          |  0.30196 | -0.80976 | i  | 55, 7, 1 |||
 909 |          |          |  0.25098 | -0.33497 | i  | 56, 7, 1 |||
 910 |          |          |  0.24314 | -0.07255 | i  | 57, 7, 1 |||
 911 |          |          |  0.30588 | -0.84485 | i  | 58, 7, 1 |||
 912 |          |          |  0.29412 |  0.70494 | i  | 59, 7, 1 |||
 913 |          |          |  0.39608 |  0.06514 | i  | 60, 7, 1 |||
 914 |          |          |  0.90588 |  0.56019 | i  | 61, 7, 1 |||
 915 |          |          |  0.92549 |  0.05833 | i  | 62, 7, 1 |||
 916 |          |          |  0.92157 |  0.74731 | i  | 63, 7, 1 |||
 917 |          |          |  0.91373 |  0.05929 | i  | 64, 7, 1 |||
 918 |          |          |  0.92549 | -0.33702 | i  | 65, 7, 1 |||
 919 |          |          |  0.92549 |  0.67049 | i  | 66, 7, 1 |||
 920 |          |          |  0.90980 | -0.74242 | i  | 67, 7, 1 |||
 921 |          |          |  0.91373 |  0.86803 | i  | 68, 7, 1 |||
 922 |          |          |  0.31765 |  0.42018 | i  | 49, 8, 1 |||
 923 |          |          |  0.32157 |  0.09388 | i  | 50, 8, 1 |||
 924 |          |          |  0.34902 | -0.36837 | i  | 51, 8, 1 |||
 925 |          |          |  0.42353 |  0.71704 | i  | 52, 8, 1 |||
 926 |          |          |  0.31372 |  0.03101 | i  | 53, 8, 1 |||
 927 |          |          |  0.24706 |  0.49881 | i  | 54, 8, 1 |||
 928 |          |          |  0.27843 | -0.36839 | i  | 55, 8, 1 |||
 929 |          |          |  0.32941 | -0.36451 | i  | 56, 8, 1 |||
 930 |          |          |  0.22353 | -0.61856 | i  | 57, 8, 1 |||
 931 |          |          |  0.30980 |  0.89501 | i  | 58, 8, 1 |||
 932 |          |          |  0.31765 | -0.45943 | i  | 59, 8, 1 |||
 933 |          |          |  0.37255 |  0.18056 | i  | 60, 8, 1 |||
 934 |          |          |  0.74118 |  0.91030 | i  | 61, 8, 1 |||
 935 |          |          |  0.92549 |  0.60535 | i  | 62, 8, 1 |||
 936 |          |          |  0.92941 | -0.55342 | i  | 63, 8, 1 |||
 937 |          |          |  0.92941 |  0.42813 | i  | 64, 8, 1 |||
 938 |          |          |  0.92549 |  0.07353 | i  | 65, 8, 1 |||
 939 |          |          |  0.92549 | -0.32142 | i  | 66, 8, 1 |||
 940 |          |          |  0.90196 | -0.44944 | i  | 67, 8, 1 |||
 941 |          |          |  0.90196 | -0.81992 | i  | 68, 8, 1 |||
 942 |          |          |  0.32157 |  0.18848 | i  | 49, 9, 1 |||
 943 |          |          |  0.32941 | -0.87480 | i  | 50, 9, 1 |||
 944 |          |          |  0.37255 |  0.01872 | i  | 51, 9, 1 |||
 945 |          |          |  0.39608 | -0.97838 | i  | 52, 9, 1 |||
 946 |          |          |  0.26274 | -0.70141 | i  | 53, 9, 1 |||
 947 |          |          |  0.13725 | -0.92741 | i  | 54, 9, 1 |||
 948 |          |          |  0.10196 | -0.95213 | i  | 55, 9, 1 |||
 949 |          |          |  0.05490 |  0.18611 | i  | 56, 9, 1 |||
 950 |          |          |  0.12157 |  0.98657 | i  | 57, 9, 1 |||
 951 |          |          |  0.21961 | -0.61135 | i  | 58, 9, 1 |||
 952 |          |          |  0.24314 | -0.64633 | i  | 59, 9, 1 |||
 953 |          |          |  0.26667 |  0.31183 | i  | 60, 9, 1 |||
 954 |          |          |  0.56471 |  0.45355 | i  | 61, 9, 1 |||
 955 |          |          |  0.92157 |  0.03997 | i  | 62, 9, 1 |||
 956 |          |          |  0.92549 |  0.57045 | i  | 63, 9, 1 |||
 957 |          |          |  0.95294 |  0.36144 | i  | 64, 9, 1 |||
 958 |          |          |  0.93726 | -0.44063 | i  | 65, 9, 1 |||
 959 |          |          |  0.92549 | -0.70532 | i  | 66, 9, 1 |||
 960 |          |          |  0.90588 |  0.37591 | i  | 67, 9, 1 |||
 961 |          |          |  0.92549 |  0.06909 | i  | 68, 9, 1 |||
 962 |          |          |  0.31765 | -0.50631 | i  | 49,10, 1 |||
 963 |          |          |  0.33726 | -0.93736 | i  | 50,10, 1 |||
 964 |          |          |  0.41177 |  0.30509 | i  | 51,10, 1 |||
 965 |          |          |  0.32549 |  0.22719 | i  | 52,10, 1 |||
 966 |          |          |  0.24314 | -0.85482 | i  | 53,10, 1 |||
 967 |          |          |  0.20000 |  0.23726 | i  | 54,10, 1 |||
 968 |          |          |  0.09020 | -0.05697 | i  | 55,10, 1 |||
 969 |          |          |  0.02745 |  0.46011 | i  | 56,10, 1 |||
 970 |          |          |  0.03922 |  0.60055 | i  | 57,10, 1 |||
 971 |          |          |  0.30196 |  0.26186 | i  | 58,10, 1 |||
 972 |          |          |  0.26667 |  0.70166 | i  | 59,10, 1 |||
 973 |          |          |  0.29020 | -0.51240 | i  | 60,10, 1 |||
 974 |          |          |  0.51372 | -0.69823 | i  | 61,10, 1 |||
 975 |          |          |  0.92157 |  0.52870 | i  | 62,10, 1 |||
 976 |          |          |  0.92941 |  0.87872 | i  | 63,10, 1 |||
 977 |          |          |  0.93333 |  0.48093 | i  | 64,10, 1 |||
 978 |          |          |  0.92549 |  0.69965 | i  | 65,10, 1 |||
 979 |          |          |  0.92549 | -0.78527 | i  | 66,10, 1 |||
 980 |          |          |  0.91373 | -0.18022 | i  | 67,10, 1 |||
 981 |          |          |  0.90980 | -0.72273 | i  | 68,10, 1 |||
 982 |          |          |  0.32549 | -0.53311 | i  | 49,11, 1 |||
 983 |          |          |  0.33333 |  0.19243 | i  | 50,11, 1 |||
 984 |          |          |  0.44314 |  0.38132 | i  | 51,11, 1 |||
 985 |          |          |  0.28627 | -0.14388 | i  | 52,11, 1 |||
 986 |          |          |  0.24314 |  0.89341 | i  | 53,11, 1 |||
 987 |          |          |  0.16863 |  0.49849 | i  | 54,11, 1 |||
 988 |          |          |  0.32549 | -0.38455 | i  | 55,11, 1 |||
 989 |          |          |  0.09412 |  0.59976 | i  | 56,11, 1 |||
 990 |          |          |  0.15686 | -0.37977 | i  | 57,11, 1 |||
 991 |          |          |  0.37255 |  0.11270 | i  | 58,11, 1 |||
 992 |          |          |  0.32941 | -0.27465 | i  | 59,11, 1 |||
 993 |          |          |  0.32549 |  0.05927 | i  | 60,11, 1 |||
 994 |          |          |  0.29412 | -0.26803 | i  | 61,11, 1 |||
 995 |          |          |  0.47451 | -0.54728 | i  | 62,11, 1 |||
 996 |          |          |  0.54510 |  0.40461 | i  | 63,11, 1 |||
 997 |          |          |  0.91373 | -0.07966 | i  | 64,11, 1 |||
 998 |          |          |  0.90980 | -0.00017 | i  | 65,11, 1 |||
 999 |          |          |  0.90588 |  0.83136 | i  | 66,11, 1 |||
1000 |          |          |  0.89804 |  0.17157 | i  | 67,11, 1 |||
1001 |          |          |  0.87451 |  0.89688 | i  | 68,11, 1 |||
1002 |          |          |  0.33333 |  0.03973 | i  | 49,12, 1 |||
1003 |          |          |  0.33726 |  0.29661 | i  | 50,12, 1 |||
1004 |          |          |  0.41961 | -0.79319 | i  | 51,12, 1 |||
1005 |          |          |  0.28627 |  0.75632 | i  | 52,12, 1 |||
1006 |          |          |  0.19608 | -0.16026 | i  | 53,12, 1 |||
1007 |          |          |  0.22745 |  0.77223 | i  | 54,12, 1 |||
1008 |          |          |  0.26667 |  0.43647 | i  | 55,12, 1 |||
1009 |          |          |  0.29020 | -0.42779 | i  | 56,12, 1 |||
1010 |          |          |  0.36863 | -0.25227 | i  | 57,12, 1 |||
1011 |          |          |  0.32549 | -0.42792 | i  | 58,12, 1 |||
1012 |          |          |  0.30196 | -0.42286 | i  | 59,12, 1 |||
1013 |          |          |  0.26274 |  0.67660 | i  | 60,12, 1 |||
1014 |          |          |  0.21177 |  0.04682 | i  | 61,12, 1 |||
1015 |          |          |  0.40000 |  0.35125 | i  | 62,12, 1 |||
1016 |          |          |  0.83922 | -0.05472 | i  | 63,12, 1 |||
1017 |          |          |  0.90980 | -0.69187 | i  | 64,12, 1 |||
1018 |          |          |  0.90980 | -0.14817 | i  | 65,12, 1 |||
1019 |          |          |  0.89412 | -0.09490 | i  | 66,12, 1 |||
1020 |          |          |  0.87843 | -0.12401 | i  | 67,12, 1 |||
1021 |          |          |  0.86667 |  0.37835 | i  | 68,12, 1 |||
1022 |          |          |  0.33333 |  0.62321 | i  | 49,13, 1 |||
1023 |          |          |  0.40784 | -0.70425 | i  | 50,13, 1 |||
1024 |          |          |  0.37647 | -0.59683 | i  | 51,13, 1 |||
1025 |          |          |  0.27451 |  0.45702 | i  | 52,13, 1 |||
1026 |          |          |  0.16471 | -0.77571 | i  | 53,13, 1 |||
1027 |          |          |  0.21569 |  0.28661 | i  | 54,13, 1 |||
1028 |          |          |  0.30588 | -0.29454 | i  | 55,13, 1 |||
1029 |          |          |  0.27059 | -0.54837 | i  | 56,13, 1 |||
1030 |          |          |  0.34510 |  0.46730 | i  | 57,13, 1 |||
1031 |          |          |  0.33333 | -0.45082 | i  | 58,13, 1 |||
1032 |          |          |  0.35686 | -0.03281 | i  | 59,13, 1 |||
1033 |          |          |  0.29412 |  0.56360 | i  | 60,13, 1 |||
1034 |          |          |  0.23529 |  0.55109 | i  | 61,13, 1 |||
1035 |          |          |  0.81961 | -0.52914 | i  | 62,13, 1 |||
1036 |          |          |  0.92157 |  0.45834 | i  | 63,13, 1 |||
1037 |          |          |  0.90980 |  0.07394 | i  | 64,13, 1 |||
1038 |          |          |  0.89804 |  0.94957 | i  | 65,13, 1 |||
1039 |          |          |  0.89020 | -0.62254 | i  | 66,13, 1 |||
1040 |          |          |  0.87451 |  0.48730 | i  | 67,13, 1 |||
1041 |          |          |  0.86274 | -0.92942 | i  | 68,13, 1 |||
1042 |          |          |  0.33333 |  0.14976 | i  | 49,14, 1 |||
1043 |          |          |  0.42745 |  0.67298 | i  | 50,14, 1 |||
1044 |          |          |  0.30588 | -0.42042 | i  | 51,14, 1 |||
1045 |          |          |  0.23137 | -0.80509 | i  | 52,14, 1 |||
1046 |          |          |  0.16078 | -0.63911 | i  | 53,14, 1 |||
1047 |          |          |  0.27451 | -0.27869 | i  | 54,14, 1 |||
1048 |          |          |  0.29412 |  0.90753 | i  | 55,14, 1 |||
1049 |          |          |  0.28627 | -0.73059 | i  | 56,14, 1 |||
1050 |          |          |  0.14510 |  0.84263 | i  | 57,14, 1 |||
1051 |          |          |  0.17647 |  0.51912 | i  | 58,14, 1 |||
1052 |          |          |  0.31372 | -0.76789 | i  | 59,14, 1 |||
1053 |          |          |  0.29020 | -0.22271 | i  | 60,14, 1 |||
1054 |          |          |  0.21961 | -0.03038 | i  | 61,14, 1 |||
1055 |          |          |  0.80392 | -0.54627 | i  | 62,14, 1 |||
1056 |          |          |  0.92157 |  0.97928 | i  | 63,14, 1 |||
1057 |          |          |  0.90980 |  0.69805 | i  | 64,14, 1 |||
1058 |          |          |  0.90196 | -0.58258 | i  | 65,14, 1 |||
1059 |          |          |  0.90196 | -0.83854 | i  | 66,14, 1 |||
1060 |          |          |  0.89020 |  0.58817 | i  | 67,14, 1 |||
1061 |          |          |  0.87451 |  0.35356 | i  | 68,14, 1 |||
1062 |          |          |  0.33333 |  0.99986 | i  | 49,15, 1 |||
1063 |          |          |  0.43137 |  0.00486 | i  | 50,15, 1 |||
1064 |          |          |  0.23529 |  0.93644 | i  | 51,15, 1 |||
1065 |          |          |  0.23922 | -0.52538 | i  | 52,15, 1 |||
1066 |          |          |  0.07843 |  0.50254 | i  | 53,15, 1 |||
1067 |          |          |  0.31765 | -0.38323 | i  | 54,15, 1 |||
1068 |          |          |  0.32941 |  0.93400 | i  | 55,15, 1 |||
1069 |          |          |  0.09020 | -0.46133 | i  | 56,15, 1 |||
1070 |          |          |  0.13333 | -0.64302 | i  | 57,15, 1 |||
1071 |          |          |  0.30588 | -0.19353 | i  | 58,15, 1 |||
1072 |          |          |  0.33333 |  0.71781 | i  | 59,15, 1 |||
1073 |          |          |  0.27059 |  0.03056 | i  | 60,15, 1 |||
1074 |          |          |  0.22745 |  0.91632 | i  | 61,15, 1 |||
1075 |          |          |  0.35686 |  0.72146 | i  | 62,15, 1 |||
1076 |          |          |  0.86274 |  0.18025 | i  | 63,15, 1 |||
1077 |          |          |  0.91373 |  0.20740 | i  | 64,15, 1 |||
1078 |          |          |  0.90588 | -0.62222 | i  | 65,15, 1 |||
1079 |          |          |  0.89804 | -0.81378 | i  | 66,15, 1 |||
1080 |          |          |  0.90196 |  0.69522 | i  | 67,15, 1 |||
1081 |          |          |  0.90588 | -0.63109 | i  | 68,15, 1 |||
1082 |          |          |  0.36078 |  0.71988 | i  | 49,16, 1 |||
1083 |          |          |  0.34902 | -0.38286 | i  | 50,16, 1 |||
1084 |          |          |  0.27059 |  0.21200 | i  | 51,16, 1 |||
1085 |          |          |  0.22353 |  0.80102 | i  | 52,16, 1 |||
1086 |          |          |  0.20000 | -0.72887 | i  | 53,16, 1 |||
1087 |          |          |  0.25098 |  0.70689 | i  | 54,16, 1 |||
1088 |          |          |  0.11765 | -0.32369 | i  | 55,16, 1 |||
1089 |          |          |  0.08627 |  0.32305 | i  | 56,16, 1 |||
1090 |          |          |  0.16863 | -0.68975 | i  | 57,16, 1 |||
1091 |          |          |  0.27451 |  0.39014 | i  | 58,16, 1 |||
1092 |          |          |  0.30196 |  0.79171 | i  | 59,16, 1 |||
1093 |          |          |  0.20784 |  0.67108 | i  | 60,16, 1 |||
1094 |          |          |  0.35686 | -0.75868 | i  | 61,16, 1 |||
1095 |          |          |  0.72549 |  0.49873 | i  | 62,16, 1 |||
1096 |          |          |  0.90980 | -0.80094 | i  | 63,16, 1 |||
1097 |          |          |  0.91765 | -0.67175 | i  | 64,16, 1 |||
1098 |          |          |  0.90588 |  0.93567 | i  | 65,16, 1 |||
1099 |          |          |  0.89804 | -0.61542 | i  | 66,16, 1 |||
1100 |          |          |  0.90980 | -0.55460 | i  | 67,16, 1 |||
1101 |          |          |  0.92157 |  0.49913 | i  | 68,16, 1 |||
1102 |          |          |  0.38431 |  0.54983 | i  | 49,17, 1 |||
1103 |          |          |  0.19216 |  0.87312 | i  | 50,17, 1 |||
1104 |          |          |  0.19608 |  0.82063 | i  | 51,17, 1 |||
1105 |          |          |  0.28235 |  0.94303 | i  | 52,17, 1 |||
1106 |          |          |  0.21569 | -0.00277 | i  | 53,17, 1 |||
1107 |          |          |  0.23922 |  0.79265 | i  | 54,17, 1 |||
1108 |          |          |  0.35294 | -0.08385 | i  | 55,17, 1 |||
1109 |          |          |  0.14510 | -0.35060 | i  | 56,17, 1 |||
1110 |          |          |  0.16471 |  0.97258 | i  | 57,17, 1 |||
1111 |          |          |  0.18431 | -0.56647 | i  | 58,17, 1 |||
1112 |          |          |  0.14902 | -0.77398 | i  | 59,17, 1 |||
1113 |          |          |  0.27059 | -0.23049 | i  | 60,17, 1 |||
1114 |          |          |  0.52549 |  0.42094 | i  | 61,17, 1 |||
1115 |          |          |  0.80392 |  0.39742 | i  | 62,17, 1 |||
1116 |          |          |  0.92941 |  0.36148 | i  | 63,17, 1 |||
1117 |          |          |  0.91765 | -0.18247 | i  | 64,17, 1 |||
1118 |          |          |  0.90980 | -0.75183 | i  | 65,17, 1 |||
1119 |          |          |  0.89804 | -0.98488 | i  | 66,17, 1 |||
1120 |          |          |  0.89412 |  0.54293 | i  | 67,17, 1 |||
1121 |          |          |  0.91765 |  0.52132 | i  | 68,17, 1 |||
1122 |          |          |  0.41569 | -0.75822 | i  | 49,18, 1 |||
1123 |          |          |  0.12549 |  0.80229 | i  | 50,18, 1 |||
1124 |          |          |  0.18823 |  0.49985 | i  | 51,18, 1 |||
1125 |          |          |  0.52941 |  0.53160 | i  | 52,18, 1 |||
1126 |          |          |  0.26667 | -0.81091 | i  | 53,18, 1 |||
1127 |          |          |  0.28627 |  0.08684 | i  | 54,18, 1 |||
1128 |          |          |  0.28235 |  0.24684 | i  | 55,18, 1 |||
1129 |          |          |  0.24706 |  0.77504 | i  | 56,18, 1 |||
1130 |          |          |  0.29412 |  0.33619 | i  | 57,18, 1 |||
1131 |          |          |  0.20784 |  0.12758 | i  | 58,18, 1 |||
1132 |          |          |  0.20784 |  0.37868 | i  | 59,18, 1 |||
1133 |          |          |  0.73725 |  0.94271 | i  | 60,18, 1 |||
1134 |          |          |  0.95294 | -0.85873 | i  | 61,18, 1 |||
1135 |          |          |  0.94118 |  0.74028 | i  | 62,18, 1 |||
1136 |          |          |  0.93333 |  0.47620 | i  | 63,18, 1 |||
1137 |          |          |  0.92157 |  0.41558 | i  | 64,18, 1 |||
1138 |          |          |  0.91373 | -0.02801 | i  | 65,18, 1 |||
1139 |          |          |  0.90196 | -0.01076 | i  | 66,18, 1 |||
1140 |          |          |  0.90196 |  0.34055 | i  | 67,18, 1 |||
1141 |          |          |  0.91373 | -0.08936 | i  | 68,18, 1 |||
1142 |          |          |  0.39216 |  0.42862 | i  | 49,19, 1 |||
1143 |          |          |  0.06667 | -0.93275 | i  | 50,19, 1 |||
1144 |          |          |  0.10196 |  0.45044 | i  | 51,19, 1 |||
1145 |          |          |  0.12157 |  0.94798 | i  | 52,19, 1 |||
1146 |          |          |  0.07059 | -0.48572 | i  | 53,19, 1 |||
1147 |          |          |  0.29804 | -0.40461 | i  | 54,19, 1 |||
1148 |          |          |  0.23922 |  0.10585 | i  | 55,19, 1 |||
1149 |          |          |  0.04314 |  0.64595 | i  | 56,19, 1 |||
1150 |          |          |  0.14510 | -0.69201 | i  | 57,19, 1 |||
1151 |          |          |  0.18039 |  0.59319 | i  | 58,19, 1 |||
1152 |          |          |  0.19216 | -0.00573 | i  | 59,19, 1 |||
1153 |          |          |  0.84706 |  0.69780 | i  | 60,19, 1 |||
1154 |          |          |  0.94510 |  0.23385 | i  | 61,19, 1 |||
1155 |          |          |  0.94510 | -0.99387 | i  | 62,19, 1 |||
1156 |          |          |  0.93333 |  0.66967 | i  | 63,19, 1 |||
1157 |          |          |  0.92549 | -0.88657 | i  | 64,19, 1 |||
1158 |          |          |  0.91373 |  0.78597 | i  | 65,19, 1 |||
1159 |          |          |  0.90588 | -0.51364 | i  | 66,19, 1 |||
1160 |          |          |  0.89804 |  0.91957 | i  | 67,19, 1 |||
1161 |          |          |  0.90196 |  0.45946 | i  | 68,19, 1 |||
1162 |          |          |  0.30980 |  0.70906 | i  | 49,20, 1 |||
1163 |          |          |  0.09804 | -0.00198 | i  | 50,20, 1 |||
1164 |          |          |  0.14902 | -0.07263 | i  | 51,20, 1 |||
1165 |          |          |  0.27451 | -0.96761 | i  | 52,20, 1 |||
1166 |          |          |  0.31765 | -0.58730 | i  | 53,20, 1 |||
1167 |          |          |  0.25490 |  0.50301 | i  | 54,20, 1 |||
1168 |          |          |  0.20784 |  0.20189 | i  | 55,20, 1 |||
1169 |          |          |  0.07843 |  0.37631 | i  | 56,20, 1 |||
1170 |          |          |  0.16471 |  0.79477 | i  | 57,20, 1 |||
1171 |          |          |  0.30588 | -0.44112 | i  | 58,20, 1 |||
1172 |          |          |  0.32549 | -0.40232 | i  | 59,20, 1 |||
1173 |          |          |  0.96078 |  0.62786 | i  | 60,20, 1 |||
1174 |          |          |  0.94510 | -0.13092 | i  | 61,20, 1 |||
1175 |          |          |  0.94510 | -0.94377 | i  | 62,20, 1 |||
1176 |          |          |  0.93726 |  0.51150 | i  | 63,20, 1 |||
1177 |          |          |  0.92941 |  0.74840 | i  | 64,20, 1 |||
1178 |          |          |  0.91765 | -0.44808 | i  | 65,20, 1 |||
1179 |          |          |  0.90980 |  0.80994 | i  | 66,20, 1 |||
1180 |          |          |  0.89804 | -0.89624 | i  | 67,20, 1 |||
1181 |          |          |  0.89412 | -0.70746 | i  | 68,20, 1 |||
1182 |          |          |  0.28627 |  0.80240 | i  | 49,21, 1 |||
1183 |          |          |  0.31372 | -0.58813 | i  | 50,21, 1 |||
1184 |          |          |  0.27451 | -0.28038 | i  | 51,21, 1 |||
1185 |          |          |  0.20392 | -0.93634 | i  | 52,21, 1 |||
1186 |          |          |  0.24706 | -0.11143 | i  | 53,21, 1 |||
1187 |          |          |  0.12941 | -0.88860 | i  | 54,21, 1 |||
1188 |          |          |  0.09020 | -0.39765 | i  | 55,21, 1 |||
1189 |          |          |  0.16471 |  0.01267 | i  | 56,21, 1 |||
1190 |          |          |  0.21961 |  0.94148 | i  | 57,21, 1 |||
1191 |          |          |  0.24706 | -0.18294 | i  | 58,21, 1 |||
1192 |          |          |  0.52941 | -0.50169 | i  | 59,21, 1 |||
1193 |          |          |  0.91373 |  0.83503 | i  | 60,21, 1 |||
1194 |          |          |  0.81177 | -0.04169 | i  | 61,21, 1 |||
1195 |          |          |  0.80000 | -0.74610 | i  | 62,21, 1 |||
1196 |          |          |  0.54118 |  0.31742 | i  | 63,21, 1 |||
1197 |          |          |  0.91373 | -0.20803 | i  | 64,21, 1 |||
1198 |          |          |  0.93333 | -0.96367 | i  | 65,21, 1 |||
1199 |          |          |  0.91765 |  0.35771 | i  | 66,21, 1 |||
1200 |          |          |  0.90196 |  0.06824 | i  | 67,21, 1 |||
1201 |          |          |  0.89804 |  0.80103 | i  | 68,21, 1 |||
1202 |          |          |  1.00000 |  1.89235 | h  | 49,24, 1 |||
1203 |          |          |  1.00000 | -0.78742 | h  | 50,24, 1 |||
1204 |          |          |  0.00000 | -0.64373 | h  | 51,24, 1 |||
1205 |          |          |  0.00001 | -0.89446 | h  | 52,24, 1 |||
1206 |          |          |  0.99902 | -0.26723 | h  | 53,24, 1 |||
1207 |          |          |  0.00000 | -0.81364 | h  | 49,25, 1 |||
1208 |          |          |  1.00000 |  0.56129 | h  | 50,25, 1 |||
1209 |          |          |  0.99995 | -0.43112 | h  | 51,25, 1 |||
1210 |          |          |  0.00000 |  0.32955 | h  | 52,25, 1 |||
1211 |          |          |  0.00000 | -0.60695 | h  | 53,25, 1 |||
1212 |          |          |  0.00000 | -0.80248 | h  | 49,26, 1 |||
1213 |          |          |  0.00000 | -1.28792 | h  | 50,26, 1 |||
1214 |          |          |  0.00000 | -0.34848 | h  | 51,26, 1 |||
1215 |          |          |  1.00000 | -0.15845 | h  | 52,26, 1 |||
1216 |          |          |  0.00000 | -0.27314 | h  | 53,26, 1 |||
1217 |          |          |  1.00000 |  2.68360 | h  | 49,27, 1 |||
1218 |          |          |  0.00000 | -0.74940 | h  | 50,27, 1 |||
1219 |          |          |  0.00000 |  0.41862 | h  | 51,27, 1 |||
1220 |          |          |  0.00000 | -0.64692 | h  | 52,27, 1 |||
1221 |          |          |  0.00000 | -0.26181 | h  | 53,27, 1 |||
1222 |          |          |  0.00000 |  0.16455 | h  | 49,28, 1 |||
1223 |          |          |  1.00000 | -0.02537 | h  | 50,28, 1 |||
1224 |          |          |  0.00000 | -0.41476 | h  | 51,28, 1 |||
1225 |          |          |  1.00000 |  1.53450 | h  | 52,28, 1 |||
1226 |          |          |  0.00000 | -0.17270 | h  | 53,28, 1 |||
1227 |          |          |  0.00033 | -0.07182 | h  | 49,31, 1 |||
1228 |          |          |  0.03112 | -0.75203 | h  | 50,31, 1 |||
1229 |          |          |  0.97785 |  0.25559 | h  | 51,31, 1 |||
1230 |          |          |  0.17703 |  1.34037 | h  | 52,31, 1 |||
1231 |          |          |  0.00460 | -0.30960 | h  | 49,32, 1 |||
1232 |          |          |  0.00609 |  0.13940 | h  | 50,32, 1 |||
1233 |          |          |  0.99998 |  0.94610 | h  | 51,32, 1 |||
1234 |          |          |  0.00411 | -1.14965 | h  | 52,32, 1 |||
1235 |          |          |  0.09819 |  0.49009 | h  | 49,33, 1 |||
1236 |          |          |  0.06181 | -0.21118 | h  | 50,33, 1 |||
1237 |          |          |  0.99238 | -0.90470 | h  | 51,33, 1 |||
1238 |          |          |  0.29967 | -0.92346 | h  | 52,33, 1 |||
1239 |          |          |  0.15890 | -0.80098 | h  | 49,34, 1 |||
1240 |          |          |  0.35587 |  0.55961 | h  | 50,34, 1 |||
1241 |          |          |  0.02418 | -1.21549 | h  | 51,34, 1 |||
1242 |          |          |  0.13081 | -0.41300 | h  | 52,34, 1 |||
1243 |          |          |  0.87769 | -1.20784 | h  | 49,37, 1 |||
1244 |          |          |  0.00008 | -0.52733 | h  | 50,37, 1 |||
1245 |          |          |  0.02636 | -0.94510 | h  | 51,37, 1 |||
1246 |          |          |  0.72453 |  0.12509 | h  | 49,38, 1 |||
1247 |          |          |  0.10895 | -0.76220 | h  | 50,38, 1 |||
1248 |          |          |  0.00236 |  1.01286 | h  | 51,38, 1 |||
1249 |          |          |  0.04228 | -1.22185 | h  | 49,39, 1 |||
1250 |          |          |  0.95647 | -1.31757 | h  | 50,39, 1 |||
1251 |          |          |  0.98062 | -1.13830 | h  | 51,39, 1 |||
1252 |          |          |  0.00086 | -0.84111 | o  | 49,42, 1 |||
1253 |          |          |  0.99867 | -0.63496 | o  | 50,42, 1 |||
1254 |          |          |  0.00040 | -2.31221 | o  | 51,42, 1 |||
-----|----------|----------|----------|----------|----|----------|----------|----------|-------


connection definition section :

target | site | source:weight
-------|------|---------------------------------------------------------------------------------------------------------
  1202 |      | 1201: 2.12256, 1200: 0.77621, 1199: 1.52069, 1198: 1.40238, 1197: 1.03098, 1196: 0.39993, 1195: 1.22613,
                1194: 0.55648, 1193: 1.12267, 1192:-0.51561, 1191: 0.09083, 1190: 0.66962, 1189: 0.47614, 1188:-0.62857,
                1187:-1.28578, 1186:-0.93081, 1185:-0.62369, 1184:-1.70303, 1183:-2.27540, 1182:-0.77525, 1181: 2.01053,
                1180: 0.24136, 1179: 0.99004, 1178: 1.81739, 1177: 0.15759, 1176: 1.03653, 1175: 0.72511, 1174:-0.60991,
                1173: 0.55109, 1172: 0.60448, 1171: 0.08708, 1170:-0.95941, 1169:-0.65260, 1168: 0.44829, 1167: 0.12838,
                1166:-1.66309, 1165:-1.46679, 1164:-0.94746, 1163:-0.75406, 1162:-1.12519, 1161: 0.59137, 1160: 1.40127,
                1159: 0.63701, 1158: 0.35518, 1157:-0.36570, 1156: 0.20508, 1155: 0.79289, 1154: 1.04757, 1153: 0.08323,
                1152: 0.48166, 1151: 0.52454, 1150:-0.35157, 1149:-0.55740, 1148: 0.18953, 1147:-1.35933, 1146: 0.33149,
                1145:-1.00222, 1144:-0.42040, 1143:-1.59712, 1142:-2.05242, 1141: 0.31918, 1140: 0.53332, 1139:-0.22621,
                1138: 0.50797, 1137: 0.65844, 1136: 0.39991, 1135: 0.01430, 1134:-0.26635, 1133: 1.12494, 1132:-0.12585,
                1131:-0.62819, 1130:-0.02888, 1129:-0.31599, 1128: 0.52532, 1127: 0.44311, 1126:-0.97604, 1125:-1.10264,
                1124:-0.73811, 1123:-0.26139, 1122:-1.20299, 1121: 0.32256, 1120: 1.86441, 1119: 0.98522, 1118: 0.94471,
                1117: 0.19329, 1116: 0.40092, 1115:-0.12599, 1114:-0.49472, 1113: 0.47529, 1112:-0.82629, 1111:-0.63544,
                1110: 0.78861, 1109: 0.05519, 1108:-0.73586, 1107: 0.29520, 1106:-1.55567, 1105:-0.87142, 1104:-0.48931,
                1103:-0.50576, 1102:-1.16638, 1101: 0.97564, 1100: 1.77260, 1099: 0.91505, 1098: 1.20368, 1097: 0.40127,
                1096: 0.88542, 1095: 0.72288, 1094: 0.49549, 1093: 0.66064, 1092: 0.23411, 1091:-1.77772, 1090:-0.46833,
                1089: 0.18297, 1088: 0.76812, 1087:-1.15710, 1086: 0.65919, 1085:-1.08570, 1084:-0.93973, 1083:-0.84169,
                1082:-0.03423, 1081: 0.86476, 1080: 0.49292, 1079: 0.23028, 1078: 0.90160, 1077: 0.16506, 1076: 0.45138,
                1075:-0.32349, 1074:-0.02382, 1073: 0.20278, 1072: 0.08218, 1071: 0.80347, 1070:-0.59873, 1069:-0.27711,
                1068:-0.31369, 1067:-1.29205, 1066: 0.19497, 1065:-0.46581, 1064:-1.45271, 1063:-1.09676, 1062:-0.52660,
                1061: 0.55491, 1060: 0.70522, 1059: 0.42633, 1058: 1.61056, 1057:-0.51941, 1056: 0.23911, 1055: 0.49174,
                1054:-0.55120, 1053: 0.37868, 1052: 0.72870, 1051: 0.03279, 1050:-0.46412, 1049: 0.53970, 1048: 1.15077,
                1047:-1.00593, 1046:-0.98578, 1045:-0.20491, 1044:-0.98532, 1043:-0.52580, 1042:-0.59452, 1041: 0.73158,
                1040: 0.17909, 1039: 0.62300, 1038:-0.16962, 1037: 1.12954, 1036: 0.19216, 1035:-0.71176, 1034:-0.34802,
                1033: 1.05496, 1032: 1.39893, 1031: 0.12962, 1030: 0.17371, 1029: 0.79952, 1028: 0.51339, 1027:-0.65959,
                1026: 0.46912, 1025:-0.46887, 1024:-1.00056, 1023: 0.76848, 1022: 0.97110, 1021:-0.02145, 1020: 0.89647,
                1019: 1.92420, 1018:-0.06691, 1017: 1.32951, 1016: 0.52375, 1015:-0.20166, 1014: 1.45187, 1013: 0.97325,
                1012: 0.78374, 1011:-0.07235, 1010: 0.75774, 1009: 1.15454, 1008: 0.42985, 1007:-1.24043, 1006:-0.11617,
                1005: 0.12625, 1004:-0.68178, 1003: 0.21034, 1002:-0.33195, 1001:-0.17981, 1000: 0.99430,  999: 0.75485,
                 998: 1.27783,  997:-0.87682,  996: 0.02502,  995: 0.28254,  994: 1.11260,  993:-0.25582,  992:-0.88227,
                 991: 1.00643,  990:-0.09070,  989:-0.77675,  988:-0.32213,  987:-0.63113,  986: 0.41799,  985:-1.49610,
                 984:-1.27161,  983: 0.73430,  982: 0.56787,  981: 0.70577,  980: 0.80377,  979: 0.30680,  978: 0.53830,
                 977:-0.94536,  976: 0.71351,  975:-1.02431,  974:-0.73148,  973: 1.34612,  972:-0.45651,  971: 0.26056,
                 970: 0.12978,  969: 0.27311,  968: 0.19978,  967: 0.32670,  966: 0.15895,  965:-1.33483,  964:-0.45254,
                 963:-0.91969,  962: 1.03926,  961: 0.52464,  960:-0.50583,  959: 1.03489,  958: 1.26039,  957: 0.69066,
                 956:-0.30557,  955:-0.75201,  954:-0.70012,  953:-0.74266,  952:-0.56304,  951:-0.96838,  950: 0.18003,
                 949: 0.35171,  948:-1.04244,  947:-0.31169,  946:-0.02761,  945:-0.65745,  944: 0.27338,  943:-0.20876,
                 942:-0.28840,  941: 0.24939,  940: 0.37791,  939: 0.46565,  938: 0.72406,  937: 1.31145,  936:-0.01865,
                 935: 0.14740,  934:-0.84443,  933:-0.98985,  932: 0.52200,  931:-0.06820,  930: 0.46467,  929:-0.90338,
                 928: 0.31814,  927: 0.63032,  926:-1.11848,  925: 0.23078,  924:-1.40249,  923:-0.94646,  922:-0.60434,
                 921: 1.19792,  920: 0.03088,  919: 0.38146,  918:-0.07653,  917: 0.74017,  916: 0.81293,  915: 0.71642,
                 914:-0.89383,  913:-0.01697,  912:-0.07923,  911:-1.02864,  910:-1.54097,  909:-1.62352,  908:-0.91163,
                 907:-0.70637,  906:-1.08806,  905:-0.89470,  904:-0.68499,  903:-1.61297,  902:-1.02962,  901: 0.63362,
                 900:-0.07587,  899: 1.19465,  898: 0.46831,  897: 0.40892,  896:-0.09891,  895:-1.18442,  894: 0.16930,
                 893: 0.21204,  892:-0.00107,  891:-1.00903,  890: 0.30493,  889: 0.70441,  888: 0.40847,  887:-0.37057,
                 886: 0.42585,  885:-0.31480,  884:-0.81146,  883:-1.18221,  882:-0.66714,  881: 0.37718,  880: 0.79084,
                 879: 1.23584,  878:-0.01882,  877: 0.52333,  876: 0.64542,  875:-0.16243,  874: 1.12710,  873: 0.30822,
                 872:-0.79181,  871:-0.16807,  870:-0.96281,  869: 0.49196,  868: 0.52119,  867:-0.65456,  866:-0.65556,
                 865:-0.52138,  864:-0.92717,  863:-1.56059,  862:-0.79477,  861: 0.15801,  860:-0.26703,  859: 0.92177,
                 858: 0.44102,  857: 0.52488,  856:-0.05827,  855: 1.17589,  854:-0.25273,  853:-0.83359,  852: 0.36780,
                 851:-1.42343,  850:-1.71150,  849: 0.34940,  848:-1.28251,  847:-0.73276,  846:-0.16683,  845: 0.46824,
                 844:-1.74905,  843:-1.96080,  842:-1.26287,  841: 1.46474,  840: 2.02258,  839: 0.98369,  838: 1.12603,
                 837: 1.53923,  836:-0.43309,  835:-0.30884,  834: 0.08860,  833: 0.39233,  832: 0.67719,  831: 0.48264,
                 830:-0.34456,  829: 0.43440,  828:-1.28375,  827:-0.43222,  826: 0.20872,  825:-0.82211,  824:-1.82579,
                 823:-1.93531,  822:-1.86498,  821: 0.89388,  820: 0.52217,  819: 0.53762,  818: 0.64335,  817: 1.42374,
                 816: 0.24205,  815:-0.37530,  814: 0.77206,  813:-0.29172,  812: 0.66603,  811: 1.11633,  810:-0.41115,
                 809:-1.60967,  808:-0.29583,  807:-0.25778,  806:-0.43416,  805:-2.11762,  804:-0.79641,  803:-1.49556,
                 802:-2.39704,  801: 2.20357,  800: 0.77305,  799: 0.76016,  798: 0.94158,  797: 0.10302,  796: 0.86526,
                 795: 1.49435,  794: 1.21993,  793: 0.52717,  792:-0.95123,  791:-0.47246,  790: 0.89007,  789:-0.54613,
                 788: 0.42630,  787:-0.37973,  786:-0.69596,  785:-1.36107,  784:-1.10936,  783:-0.61941,  782:-0.37458,
                 781: 1.34457,  780: 0.03440,  779: 1.55049,  778: 1.20966,  777:-0.11683,  776: 0.82718,  775: 1.23209,
                 774:-0.58685,  773: 0.31105,  772:-0.12748,  771: 1.45302,  770:-0.46323,  769: 0.97072,  768:-0.24777,
                 767: 1.17712,  766: 0.26339,  765:-1.31904,  764:-0.64459,  763:-0.23451,  762:-0.68768,  761: 1.26517,
                 760: 0.25676,  759: 0.06383,  758:-0.13590,  757: 0.88469,  756:-0.54197,  755: 0.11600,  754: 1.28631,
                 753: 0.06429,  752:-0.05800,  751: 0.30117,  750: 0.73207,  749: 0.11459,  748: 0.29491,  747: 0.11375,
                 746:-0.42205,  745:-0.81585,  744:-1.62459,  743:-0.50489,  742:-0.98510,  741: 0.85281,  740:-0.22854,
                 739: 1.02185,  738:-0.02559,  737: 0.59534,  736:-0.08639,  735: 0.44478,  734: 0.95724,  733: 0.88023,
                 732:-0.98883,  731: 0.20934,  730:-0.08372,  729: 0.07655,  728: 0.03305,  727: 0.05270,  726:-1.33645,
                 725:-0.62878,  724:-0.85685,  723:-1.60147,  722:-0.49583,  721: 0.91815,  720: 1.16627,  719: 0.63351,
                 718: 0.23818,  717: 0.94438,  716:-0.55106,  715:-0.09990,  714: 0.17124,  713:-1.34646,  712: 0.08619,
                 711: 0.44088,  710: 0.15239,  709: 0.76277,  708:-0.17513,  707:-0.35541,  706:-0.90139,  705:-1.02386,
                 704:-1.26517,  703: 0.35655,  702:-0.11592,  701: 1.35147,  700:-0.38281,  699:-0.02779,  698:-0.34775,
                 697: 0.52701,  696: 0.07478,  695: 0.66836,  694: 0.32924,  693: 0.00039,  692:-1.16599,  691:-0.34353,
                 690: 0.07430,  689: 0.48229,  688: 0.70072,  687: 0.24353,  686: 0.62815,  685: 0.00457,  684:-0.09424,
                 683:-0.97168,  682: 0.08989,  681:-0.20954,  680: 0.56427,  679:-0.02163,  678: 0.94486,  677: 0.09357,
                 676:-0.30075,  675:-0.43406,  674: 0.17600,  673: 0.34374,  672: 0.43512,  671: 0.13635,  670:-0.80794,
                 669:-0.36933,  668: 1.02202,  667: 0.10973,  666: 0.44305,  665:-0.48046,  664:-0.03070,  663: 0.30991,
                 662:-0.22646,  661: 0.60130,  660:-0.20640,  659:-0.77298,  658:-0.37825,  657:-0.17306,  656:-0.07241,
                 655:-0.57220,  654:-0.91749,  653: 0.45878,  652:-0.54370,  651:-0.92699,  650:-0.01658,  649:-0.36452,
                 648: 1.08983,  647:-0.53307,  646: 0.27115,  645:-1.12144,  644: 0.36431,  643: 0.14350,  642:-0.17510,
                 641: 0.86191,  640:-0.32258,  639:-0.80996,  638:-0.60963,  637:-0.06749,  636: 0.65505,  635: 0.94448,
                 634:-0.76798,  633:-0.12373,  632:-0.16008,  631: 0.95872,  630:-0.10201,  629: 0.13399,  628:-0.73702,
                 627:-0.87787,  626: 0.30684,  625: 0.19791,  624:-0.47427,  623: 0.33144,  622:-0.17573,  621: 0.10407,
                 620:-0.64209,  619:-0.24689,  618: 1.01481,  617:-0.16058,  616:-0.66113,  615: 0.41610,  614: 0.20437,
                 613: 1.39686,  612: 0.42156,  611: 0.58126,  610: 0.61214,  609: 0.89203,  608: 0.65907,  607:-1.08724,
                 606: 0.43725,  605: 0.06458,  604:-0.73151,  603: 0.67134,  602: 0.55477,  601:-0.06046,  600: 0.72224,
                 599: 0.56879,  598: 0.20725,  597:-0.16538,  596:-0.09329,  595: 0.21421,  594:-0.36407,  593: 0.18902,
                 592: 0.63674,  591: 0.91986,  590: 0.19548,  589: 0.21958,  588:-1.15827,  587:-0.62858,  586: 0.47102,
                 585:-0.58792,  584:-1.32873,  583:-0.79293,  582: 1.16811,  581: 0.82652,  580:-0.87733,  579: 0.56749,
                 578: 0.96889,  577:-0.83941,  576:-0.33716,  575:-1.38080,  574:-0.00934,  573:-0.35698,  572: 0.47279,
                 571:-0.64865,  570:-0.16631,  569:-0.46620,  568:-0.61334,  567:-1.10751,  566:-0.51994,  565:-1.54533,
                 564:-1.12671,  563:-1.02242,  562: 0.62452,  561:-0.84085,  560: 0.44877,  559: 0.53294,  558: 0.00347,
                 557: 0.44344,  556:-0.35272,  555: 0.12314,  554:-0.38465,  553: 0.21604,  552:-0.05278,  551:-0.83200,
                 550:-0.06144,  549:-0.02254,  548:-0.13257,  547:-0.76814,  546:-0.32288,  545:-0.65030,  544:-0.30672,
                 543: 0.71330,  542:-0.66165,  541:-0.12772,  540: 0.83543,  539:-0.37171,  538:-0.68969,  537: 0.65610,
                 536: 1.37578,  535: 1.24163,  534:-0.63669,  533:-0.36468,  532:-0.32735,  531: 0.30450,  530:-0.62212,
                 529:-0.31939,  528:-0.50569,  527:-1.10857,  526:-0.37525,  525:-0.13764,  524: 0.31239,  523: 0.50449,
                 522: 0.19057,  521: 0.68868,  520:-0.01862,  519: 0.15726,  518: 0.25414,  517:-0.94087,  516: 0.31697,
                 515: 0.60408,  514:-0.60519,  513: 0.47768,  512: 0.36096,  511: 0.30907,  510:-0.03532,  509:-1.43441,
                 508:-0.21202,  507:-0.59116,  506:-0.37710,  505:-0.65957,  504:-0.66292,  503:-0.38521,  502:-0.69217,
                 501:-0.13516,  500:-0.18255,  499: 0.84161,  498: 1.16067,  497: 0.04265,  496:-0.45700,  495: 0.90108,
                 494: 1.22639,  493:-0.87107,  492: 0.38680,  491:-0.93965,  490:-0.66335,  489: 0.16746,  488:-0.33096,
